{"learner":{"attributes":{"best_iteration":"99","best_ntree_limit":"100","scikit_learn":"{\"n_estimators\": 100, \"objective\": \"reg:squarederror\", \"max_depth\": 14, \"max_leaves\": null, \"max_bin\": null, \"grow_policy\": null, \"learning_rate\": \"0.41\", \"verbosity\": null, \"booster\": null, \"tree_method\": null, \"gamma\": null, \"min_child_weight\": null, \"max_delta_step\": null, \"subsample\": null, \"sampling_method\": null, \"colsample_bytree\": null, \"colsample_bylevel\": null, \"colsample_bynode\": null, \"reg_alpha\": null, \"reg_lambda\": null, \"scale_pos_weight\": null, \"base_score\": null, \"missing\": NaN, \"num_parallel_tree\": null, \"random_state\": null, \"n_jobs\": null, \"monotone_constraints\": null, \"interaction_constraints\": null, \"importance_type\": null, \"gpu_id\": null, \"validate_parameters\": null, \"predictor\": null, \"enable_categorical\": false, \"max_cat_to_onehot\": null, \"eval_metric\": \"rmse\", \"early_stopping_rounds\": null, \"callbacks\": null, \"kwargs\": {\"alpha\": 1}, \"evals_result_\": {\"validation_0\": {\"rmse\": [1.9122843537466965, 1.790783400207709, 1.7471153053674524, 1.7304298695648512, 1.7244252914505998, 1.7238490052194373, 1.7232575217686834, 1.724283283135438, 1.725778203500854, 1.726948481665448, 1.727606801104381, 1.7283683745082137, 1.7289509377601373, 1.7298793175634464, 1.7300427190752588, 1.7304602414156862, 1.730928376909727, 1.7312483588467635, 1.7314291694368957, 1.7317574529654276, 1.731993173034681, 1.7323109682597473, 1.7326174055155066, 1.7328424148834003, 1.73306693082139, 1.733237656262478, 1.7333063650685425, 1.733503486320485, 1.7337711031024874, 1.7340171157738518, 1.7340624199399657, 1.7341706781853057, 1.7342269621879698, 1.7343016810999323, 1.7343729224472109, 1.7344487118110072, 1.734521664138233, 1.734626699474944, 1.7347105027688834, 1.7347895960469373, 1.7348172986563986, 1.7348704271607718, 1.7349028925648848, 1.7349089927869703, 1.7349225093977094, 1.7349785557626651, 1.735000962181025, 1.7350264384482306, 1.7350629049396888, 1.7350727075992614, 1.7351692213217713, 1.7352368055999892, 1.7352542113540754, 1.735333646863687, 1.7353728913742446, 1.7353758322114616, 1.7353827014127177, 1.7353668933855109, 1.7353804576838487, 1.7353862867673244, 1.7354128307145846, 1.735455017861797, 1.7355236854323604, 1.7355179714555544, 1.7355383625486758, 1.7355576034290265, 1.735576961969447, 1.735594671887136, 1.7356082226706804, 1.7356104754452284, 1.7356171282477266, 1.7356227199914287, 1.7356518334142932, 1.7356637479863135, 1.7356893685872676, 1.7356915802713757, 1.7357018307243417, 1.7357145763794086, 1.7357207924965075, 1.7357267291222946, 1.735740491477304, 1.7357509079098736, 1.7357867744742934, 1.7358010307618765, 1.7357967153589777, 1.7357976399000192, 1.7358037051136574, 1.7358166197351024, 1.7358283099791578, 1.7358434883330867, 1.7358712169797619, 1.7358794031313745, 1.7358825242704172, 1.7358784837768715, 1.7358874570770921, 1.7358885754318147, 1.735904134550918, 1.7359144773229627, 1.7359267307009825, 1.735924555921845]}}, \"_estimator_type\": \"regressor\"}"},"feature_names":[],"feature_types":[],"gradient_booster":{"model":{"gbtree_model_param":{"num_parallel_tree":"1","num_trees":"100","size_leaf_vector":"0"},"tree_info":[0,0,0,0,0,0,0,0,0,0,0,0,0,0,0,0,0,0,0,0,0,0,0,0,0,0,0,0,0,0,0,0,0,0,0,0,0,0,0,0,0,0,0,0,0,0,0,0,0,0,0,0,0,0,0,0,0,0,0,0,0,0,0,0,0,0,0,0,0,0,0,0,0,0,0,0,0,0,0,0,0,0,0,0,0,0,0,0,0,0,0,0,0,0,0,0,0,0,0,0],"trees":[{"base_weights":[1.1839964E0,7.232691E-1,1.6014658E0,1.6929792E0,4.830226E-1,1.6877549E0,1.4749557E0,1.6217545E0,2.5504808E0,3.7662402E-1,1.626589E0,1.5064126E0,1.765327E0,3.4123224E-1,1.5144191E0,1.7498769E0,1.1083984E0,2.925926E0,1.8175676E0,2.7005795E-1,1.1811289E0,1.8391377E0,1.2441521E0,1.4770659E0,2.3206522E0,2.1219387E0,1.6996832E0,2.0625E0,2.6715687E-1,1.8476845E0,1.4141403E0,1.7009169E0,2.244382E0,8.14433E-1,1.4842342E0,-0E0,1.9632353E0,2.0530303E0,2.567067E-1,1.4272608E0,7.341176E-1,1.8549747E0,7.2727275E-1,1.4619883E0,1.0145348E0,1.3332123E0,1.631829E0,2.3806818E0,6E-1,2.2977054E0,1.1503268E0,1.7260759E0,1.2068346E0,3.480392E-1,1.7475729E-1,1.7848047E0,2.195122E0,1.3972528E0,2.4927535E0,1.755823E0,1.5714285E0,2.738889E0,1.7078651E0,1.335E0,5.338542E-1,1.6287425E0,1.0089285E0,2.1525424E0,5.5E-1,-0E0,2.1328125E0,2.4969028E-1,2.2258065E0,1.7753304E0,1.2756052E0,6.997549E-1,1.4166666E0,9.69697E-1,1.6875E0,1.3077778E0,2.5185184E0,1.8911071E0,1.42777E0,2.6847825E0,1.9767442E0,1.8095238E0,2.6599576E0,1.4681818E0,3.068182E-1,1.7550063E0,1.2483108E0,1.3107569E0,1.9642857E-1,1.9967213E0,1.7076659E0,1.96875E0,3.4166667E0,1.3525466E0,1.7347909E0,3.75E-1,2.5681818E0,1.9191729E0,1.484725E0,1.0386904E0,1.78875E0,2.987342E0,7.916667E-1,7.5E-1,1.8486842E0,1.4076087E0,3.3333334E-1,3.40625E-1,1.4242424E0,5.6E0,1.7818182E0,2.4638581E-1,1.3269231E0,1.8930482E0,1.1707317E0,2.4285715E0,1.2561206E0,7.0771146E-1,-0E0,9.208861E-1,1.6875E0,1.2842026E0,2.3392856E0,3.1944444E0,9.5E-1,1.9464285E0,2.75E-1,1.0718563E0,1.5319927E0,3.75E-1,2.0625E0,1.9411764E0,1.4563106E0,2.463873E0,3.1653543E0,1.75E0,1.1132076E0,2.195122E-1,8.75E-1,1.7262328E0,2.1877134E0,1.3612168E0,3.0882353E-1,8.605769E-1,1.6114864E0,2.0706713E0,9.5652175E-1,1.7165127E0,5.555556E-1,1.8702532E0,2.631579E0,2.2307692E0,4.0277777E0,1.3277333E0,1.9490446E0,1.3422331E0,1.9781932E0,2.2282608E0,3.142857E0,1.9370989E0,1.075E0,1.9010988E0,1.3840399E0,1.09E0,5.263158E-1,1.5164474E0,1.943775E0,3.12E0,2E-1,3.1612903E-1,7.5E-1,1.625E0,2.4562196E-1,1.2719465E0,-0E0,6.8922305E-1,2.125E0,1.4166666E0,1.0253304E0,3.6944444E0,-0E0,3.40625E0,6.666667E-1,1.9629277E0,2.857143E-1,7.5E-1,-0E0,8.4615386E-1,1.5439253E0,1.6375E0,2.1875E0,1.1145834E0,1.7053572E0,1.7445256E0,2.9166667E0,4.1013513E0,1.8055556E0,1.8094118E0,1.5625E0,1.8624032E0,4.4305553E0,1.4474885E0,8.888889E-1,1.1428572E0,5.357143E-2,6.7763156E-1,1.2758621E0,1.7850877E0,9.714286E-1,2.1212687E0,1.03125E0,1.0526316E0,2E-1,1.9177631E0,4.2857143E-1,1.343982E0,6.785714E-1,9.75E-1,2.0688405E0,2.5277777E0,1.2169312E0,2.057915E0,1.6031746E0,2.8888888E0,1.175E0,1.6153846E0,4.888889E0,1.9402313E0,-0E0,2.0847456E0,1.4848485E0,1.36625E0,3.75E0,1.6153846E0,1.125E0,2.012987E0,9.4736844E-1,1.2495089E0,1.84375E0,8.072917E-1,1.4890323E0,2.4736843E0,9.575688E-1,2.0492787E0,1.6126126E0,1.375E0,-0E0,1.6554621E0,-0E0,1.2432432E0,5.416667E-1,3.6666667E0,1.5462962E0,1.7649254E0,3.75E-1,2.9804878E0,8.3333336E-2,4.653226E0,1.0769231E0,8.4090906E-1,2.3636363E0,1.6211604E0,1.8869814E0,1.639459E0,1.3763676E0,2.2372882E0,1.0182927E0,4.946429E0,2.2222223E0,9.756098E-1,1.5418994E0,6.933333E-1,-0E0,1.5892857E0,2.2258065E0,2.5686274E0,2.0022936E0,6.0714287E-1,2.3333333E0,1.7451923E0,2.2244897E0,1.5755396E0,1.3344799E0,1.3928572E0,1.2280702E-1,1.09375E0,2E-1,2.3066666E0,1.7421875E0,4.375E-1,3.7272727E0,1.0082644E0,1.5507246E0,1.852349E0,2.3063064E0,7.692308E-1,1.7647059E0,3.6363637E0,2.1764705E0,2.6E0,7.777778E-1,1.75E0,2.0070796E0,1.3380102E0,2.3333333E0,1.3736264E0,2.3333333E0,1.3703704E0,2.5E-1,3.75E-1,2.0285087E0,9.1964287E-1,6.097561E-1,1.4399421E0,1.8588235E0,1.144654E0,8.435252E-1,1.6377953E0,2.2189655E0,3.2E0,1.5652174E0,8.4375E-1,1.7692307E0,2.0543478E0,1.5842696E0,3.1870503E0,2.4925373E0,1.524371E0,1.8627049E0,1.7789748E0,2.0764627E0,1.6543909E0,3.2142857E-1,1.5185643E0,2.685185E-1,2.5533981E0,1.76E0,3.6666667E0,8.9375E-1,2.857143E-1,1.0571429E0,1.9047619E0,2.903226E0,8.3333336E-2,7.777778E-1,2.0067568E0,1.032258E0,1.8397436E0,1.201613E0,7.1875E-1,1.336557E0,1.1805556E0,2.142857E0,2.4210527E0,1.4021739E0,1.1125E0,2.05E0,1.8732877E0,3.75E-1,1.6477273E0,2.6838236E0,1.4605263E0,2.392857E0,2.0745614E0,1.3564357E0,1.0634921E0,1.3833333E0,1.8095238E0,3.4285715E0,7.2619045E-1,1.3333334E0,1.5310651E0,1.3460453E0,1.8963414E0,3.75E-1,1.117647E0,1.9480519E0,2.9438775E0,1.8341969E0,1.6E0,3.3333333E0,1.621124E0,1.0909091E0,1.7464789E0,2.546875E0,2.0186083E0,1.5720165E0,2.2781186E0,1.6912879E0,1.6074766E0,2.0927835E0,1.4521858E0,2.0769231E0,2.1568628E-1,6.25E-1,2.81875E0,1.5208334E0,1.7986112E0,3.75E-1,2.15625E0,7.5E-1,3.1875E0,1.5625E0,1.3939394E0,2.4166667E0,8E-1,-0E0,1.6607143E0,7.2727275E-1,2.75E0,1E0,1.9135803E0,-0E0,2.0514705E0,9.5E-1,3.64E0,2.6554055E0,1.9028572E0,1.0526316E0,9.791667E-1,2.625E0,1.5246711E0,1.7464789E0,1.0084034E0,3.6666667E0,2.2931726E0,1.8256757E0,-0E0,1.5923611E0,2.426087E0,1.9034482E0,1.8342541E0,1.3511904E0,1.6123302E0,5.714286E-1,1.5513393E0,1.2797203E0,2.95E0,1.6833333E0,4.6E0,2.6513157E0,2.4338236E0,4.285714E0,3.75E-1,1.9215117E0,1.5699658E0,2.0833333E-1,1.8709677E0,1.3728814E0,7.7840906E-1,1.578125E0,1.6527778E0,2.385514E0,2.2280703E0,1.7436305E0,1.6530769E0,1E0,1.7384615E0,2.5729537E0,1.8922156E0,1E0,7.125E-1,1.8666667E0,1.625E0,1.1911764E0,1.3125E0,4.375E-1,3.8E0,1.5833334E0,7.777778E-1,2.8455882E0,2.0227273E0,9.3421054E-1,5.8666664E-1,1.6785715E0,2.4114833E0,9.166667E-1,1.6868687E0,2.5277777E0,8.25E-1,1.6751188E0,3.6666667E0,8.5507244E-1,2.7840376E0,1.8695652E0,8.28125E-1,1.1111111E-1,1.6048834E0,2.2708333E0,-0E0,2E0,2.975E0,1.5555556E0],"categories":[],"categories_nodes":[],"categories_segments":[],"categories_sizes":[],"default_left":[1,1,1,1,1,1,1,1,1,1,1,1,1,1,1,1,1,0,1,1,1,1,1,1,1,1,1,0,1,1,1,1,1,1,1,0,1,1,1,1,1,0,0,0,1,1,1,1,0,1,1,1,1,0,0,1,1,1,1,1,1,1,1,1,1,0,0,1,0,0,0,1,0,1,1,1,0,1,0,1,1,1,1,0,1,1,1,1,1,1,1,1,0,1,1,1,1,1,1,0,1,1,1,1,1,1,0,0,0,0,0,1,0,0,0,1,0,0,0,0,1,1,0,0,0,1,1,1,0,1,1,0,1,0,0,1,1,1,1,0,0,0,0,1,1,1,1,1,1,1,1,0,0,1,0,0,0,1,1,1,1,1,1,1,0,1,1,0,0,1,1,0,0,0,0,0,0,1,0,0,0,1,1,0,0,0,0,1,0,1,0,0,0,1,0,1,1,1,1,1,1,1,1,1,1,1,0,0,0,1,0,1,0,1,1,0,0,1,0,1,1,1,1,1,1,1,1,1,0,1,0,1,0,0,0,1,0,1,1,1,0,0,0,1,1,0,1,1,0,0,0,1,0,0,0,0,1,1,0,1,0,0,0,0,0,1,1,1,1,1,1,0,0,1,0,0,0,0,0,1,0,1,0,1,0,1,1,1,0,0,0,0,1,0,0,0,1,1,1,0,1,0,0,0,0,1,0,1,0,0,1,0,0,0,0,1,0,1,1,0,0,1,1,0,0,0,0,0,0,0,1,1,1,1,1,1,0,1,1,1,1,0,0,0,0,1,1,0,0,1,0,0,0,1,0,0,0,0,0,0,0,0,0,0,0,1,1,0,0,0,0,0,0,0,0,0,0,1,0,0,1,1,1,1,0,1,1,0,0,1,1,1,1,1,0,1,1,0,0,1,0,0,0,0,0,0,0,0,0,0,0,0,0,0,0,0,0,0,0,0,1,1,0,0,0,1,1,1,0,1,1,0,1,1,0,1,1,1,0,0,1,1,0,0,1,0,0,0,0,0,0,0,1,1,0,0,1,0,1,1,1,0,1,0,0,1,0,1,0,0,0,0,0,1,1,0,0,0,0,0,0,0,0,0,0,0,0,0,0,0,0,0,0,0,0,0,0],"id":0,"left_children":[1,3,5,7,9,11,13,15,17,19,21,23,25,27,29,31,33,-1,35,37,39,41,43,45,47,49,51,-1,53,55,57,59,61,63,65,-1,67,69,71,73,75,-1,-1,-1,77,79,81,83,-1,85,87,89,91,-1,-1,93,95,97,99,101,103,105,107,109,111,-1,-1,113,-1,-1,-1,115,-1,117,119,121,-1,123,-1,125,127,129,131,-1,133,135,137,139,141,143,145,147,-1,149,151,153,155,157,159,-1,161,163,165,167,169,171,-1,-1,-1,-1,-1,173,-1,-1,-1,175,-1,-1,-1,-1,177,179,-1,-1,-1,181,183,185,-1,187,189,-1,191,-1,-1,193,195,197,199,-1,-1,-1,-1,201,203,205,207,209,211,213,215,-1,-1,217,-1,-1,-1,219,221,223,225,227,229,231,-1,233,235,-1,-1,237,239,-1,-1,-1,-1,-1,-1,241,-1,-1,-1,243,245,-1,-1,-1,-1,247,-1,249,-1,-1,-1,251,-1,253,255,257,259,261,263,265,267,269,271,273,-1,-1,-1,275,-1,277,-1,279,281,-1,-1,283,-1,285,287,289,291,293,295,297,299,301,-1,303,-1,305,-1,-1,-1,307,-1,309,311,313,-1,-1,-1,315,317,-1,319,321,-1,-1,-1,323,-1,-1,-1,-1,325,327,-1,329,-1,-1,-1,-1,-1,331,333,335,337,339,341,-1,-1,343,-1,-1,-1,-1,-1,345,-1,347,-1,349,-1,351,353,355,-1,-1,-1,-1,357,-1,-1,-1,359,361,363,-1,365,-1,-1,-1,-1,367,-1,369,-1,-1,371,-1,-1,-1,-1,373,-1,375,377,-1,-1,379,381,-1,-1,-1,-1,-1,-1,-1,383,385,387,389,391,393,-1,395,397,399,401,-1,-1,-1,-1,403,405,-1,-1,407,-1,-1,-1,409,-1,-1,-1,-1,-1,-1,-1,-1,-1,-1,-1,411,413,-1,-1,-1,-1,-1,-1,-1,-1,-1,-1,415,-1,-1,417,419,421,423,-1,425,427,-1,-1,429,431,433,435,437,-1,439,441,-1,-1,443,-1,-1,-1,-1,-1,-1,-1,-1,-1,-1,-1,-1,-1,-1,-1,-1,-1,-1,-1,-1,445,447,-1,-1,-1,449,451,453,-1,455,457,-1,459,461,-1,463,465,467,-1,-1,469,471,-1,-1,473,-1,-1,-1,-1,-1,-1,-1,475,477,-1,-1,479,-1,481,483,485,-1,487,-1,-1,489,-1,491,-1,-1,-1,-1,-1,493,495,-1,-1,-1,-1,-1,-1,-1,-1,-1,-1,-1,-1,-1,-1,-1,-1,-1,-1,-1,-1,-1,-1],"loss_changes":[5.5995625E3,3.2238667E3,1.6116016E2,1.595874E2,1.3483291E3,1.2169922E2,2.754209E2,1.6239551E2,4.7173584E1,8.6927637E2,7.136279E1,5.7984375E1,1.4110547E2,2.4022581E1,1.946084E2,4.1410156E1,5.3059692E1,0E0,1.7629074E1,2.1078839E2,1.27388916E2,6.6867676E0,1.31466675E1,5.3589844E1,5.0935974E0,1.6127002E2,6.478223E1,0E0,9.4097424E-1,2.2294434E1,7.674512E1,7.0947266E0,3.8101013E1,3.9921936E1,1.0967255E1,0E0,1.4305969E1,1.2943298E1,1.20055786E2,3.4960693E1,6.860321E0,0E0,0E0,0E0,8.964386E-1,3.4363037E1,6.0803955E1,8.4106445E-1,0E0,1.3714502E2,3.8795883E1,6.514551E1,2.7426422E1,0E0,0E0,1.2142822E1,4.457538E1,6.3226562E1,7.115692E0,5.078418E1,6.095923E1,3.739734E1,8.019623E0,5.0628204E0,3.0783405E1,0E0,0E0,5.8045288E1,0E0,0E0,0E0,2.9706177E1,0E0,1.0876038E1,5.3285522E0,1.5638733E0,0E0,1.6186523E0,0E0,2.620166E1,2.144629E1,4.6505615E1,2.220227E1,0E0,2.6954956E0,1.0376587E1,3.3347168E1,6.1928864E0,8.960643E-1,5.199707E1,2.9307373E1,3.0122131E1,0E0,1.8453613E1,5.682617E0,2.0668945E0,6.4978333E0,5.370996E1,4.4283325E1,0E0,5.1849365E-1,6.9814453E0,1.4667725E1,2.226654E0,1.0477661E1,2.5267395E1,0E0,0E0,0E0,0E0,0E0,3.0126E-1,0E0,0E0,0E0,7.054016E0,0E0,0E0,0E0,0E0,9.919983E0,6.254944E0,0E0,0E0,0E0,4.14729E1,9.245734E1,3.293396E0,0E0,1.1767578E1,1.8625E0,0E0,7.8015137E-1,0E0,0E0,1.1667664E1,4.0451965E0,1.0294824E2,1.4832935E2,0E0,0E0,0E0,0E0,5.5114258E1,1.9923413E2,7.0938416E0,5.980568E0,5.0832825E0,1.1954376E1,9.543457E0,2.0915413E-1,0E0,0E0,7.6538696E0,0E0,0E0,0E0,3.787549E1,1.325885E1,2.378061E1,2.6368408E0,2.4549088E1,4.160562E1,5.6970215E0,0E0,2.9119873E-1,6.638489E0,0E0,0E0,1.329071E0,1.2304382E1,0E0,0E0,0E0,0E0,0E0,0E0,1.3258667E0,0E0,0E0,0E0,3.48667E1,3.8756866E1,0E0,0E0,0E0,0E0,8.945068E0,0E0,4.1875E0,0E0,0E0,0E0,4.3573E0,0E0,1.0798149E0,6.5874634E0,1.0257263E0,3.4661255E1,1.1277246E2,2.3878784E1,3.6875977E1,1.6615723E1,7.6108826E1,2.2851257E1,5.734741E0,0E0,0E0,0E0,1.1553078E0,0E0,2.4849548E0,0E0,4.550049E0,4.478424E0,0E0,0E0,1.9384766E-1,0E0,3.2871094E0,3.721679E1,3.28125E-1,2.6532593E0,3.933554E1,9.041626E0,4.7939453E0,4.5951996E0,6.506195E-1,0E0,5.321369E0,0E0,2.6240234E0,0E0,0E0,0E0,4.1307373E0,0E0,1.339563E1,5.766205E0,2.7088623E0,0E0,0E0,0E0,4.040146E-2,8.093262E0,0E0,6.3487244E0,2.155542E1,0E0,0E0,0E0,6.8131104E0,0E0,0E0,0E0,0E0,4.3518066E0,1.1303711E-1,0E0,7.0389404E0,0E0,0E0,0E0,0E0,0E0,1.4323486E1,3.5365723E1,1.8590332E1,6.9797485E1,1.7897583E1,1.9209023E1,0E0,0E0,6.6132355E-1,0E0,0E0,0E0,0E0,0E0,9.9057007E-1,0E0,3.25397E-1,0E0,1.4283234E1,0E0,8.480225E0,1.6313477E0,8.343277E-1,0E0,0E0,0E0,0E0,7.5547333E0,0E0,0E0,0E0,9.653702E0,1.6583557E0,1.8843567E1,0E0,2.3963928E0,0E0,0E0,0E0,0E0,2.1090454E1,0E0,9.592285E-1,0E0,0E0,4.0476074E0,0E0,0E0,0E0,0E0,1.4538689E0,0E0,9.7436523E-1,1.7494812E0,0E0,0E0,1.5252258E1,7.071008E1,0E0,0E0,0E0,0E0,0E0,0E0,0E0,4.001294E1,2.2192505E1,1.0661072E1,5.9990234E1,5.0587646E1,1.471582E1,0E0,8.428284E0,4.153061E-2,1.9594849E1,1.1626282E0,0E0,0E0,0E0,0E0,1.5751495E0,2.0846863E0,0E0,0E0,1.1409515E1,0E0,0E0,0E0,1.3343754E0,0E0,0E0,0E0,0E0,0E0,0E0,0E0,0E0,0E0,0E0,0E0,1.9821854E0,4.642868E-1,0E0,0E0,0E0,0E0,0E0,0E0,0E0,0E0,0E0,0E0,1.7238464E0,0E0,0E0,2.997345E0,3.7185059E0,5.3983154E0,1.6097916E1,0E0,3.0493164E-1,1.7341736E1,0E0,0E0,2.4431396E1,2.4111084E1,1.8162354E1,7.1724243E0,1.7373047E0,0E0,1.4424438E0,3.8025513E0,0E0,0E0,4.4119873E0,0E0,0E0,0E0,0E0,0E0,0E0,0E0,0E0,0E0,0E0,0E0,0E0,0E0,0E0,0E0,0E0,0E0,0E0,0E0,0E0,9.582031E0,1.9706421E0,0E0,0E0,0E0,1.602008E1,4.093872E0,1.2007927E1,0E0,6.7436523E0,4.3587646E0,0E0,2.1589233E1,2.6056885E1,0E0,3.9677734E0,2.3746124E1,3.5473633E-1,0E0,0E0,1.6236877E0,2.1665955E-1,0E0,0E0,2.1825684E1,0E0,0E0,0E0,0E0,0E0,0E0,0E0,1.1972443E1,1.1938744E1,0E0,0E0,2.6242676E0,0E0,5.4973755E0,7.9819336E0,1.9782608E1,0E0,3.186267E1,0E0,0E0,1.7501736E0,0E0,4.484375E0,0E0,0E0,0E0,0E0,0E0,6.5555553E0,2.1939087E0,0E0,0E0,0E0,0E0,0E0,0E0,0E0,0E0,0E0,0E0,0E0,0E0,0E0,0E0,0E0,0E0,0E0,0E0,0E0,0E0,0E0,0E0],"parents":[2147483647,0,0,1,1,2,2,3,3,4,4,5,5,6,6,7,7,8,8,9,9,10,10,11,11,12,12,13,13,14,14,15,15,16,16,18,18,19,19,20,20,21,21,22,22,23,23,24,24,25,25,26,26,28,28,29,29,30,30,31,31,32,32,33,33,34,34,36,36,37,37,38,38,39,39,40,40,44,44,45,45,46,46,47,47,49,49,50,50,51,51,52,52,55,55,56,56,57,57,58,58,59,59,60,60,61,61,62,62,63,63,64,64,67,67,71,71,73,73,74,74,75,75,77,77,79,79,80,80,81,81,82,82,84,84,85,85,86,86,87,87,88,88,89,89,90,90,91,91,93,93,94,94,95,95,96,96,97,97,98,98,100,100,101,101,102,102,103,103,104,104,105,105,111,111,115,115,120,120,121,121,125,125,126,126,127,127,129,129,130,130,132,132,135,135,136,136,137,137,138,138,143,143,144,144,145,145,146,146,147,147,148,148,149,149,150,150,153,153,157,157,158,158,159,159,160,160,161,161,162,162,163,163,165,165,166,166,169,169,170,170,177,177,181,181,182,182,187,187,189,189,193,193,195,195,196,196,197,197,198,198,199,199,200,200,201,201,202,202,203,203,204,204,205,205,209,209,211,211,213,213,214,214,217,217,219,219,220,220,221,221,222,222,223,223,224,224,225,225,226,226,227,227,229,229,231,231,235,235,237,237,238,238,239,239,243,243,244,244,246,246,247,247,251,251,256,256,257,257,259,259,265,265,266,266,267,267,268,268,269,269,270,270,273,273,279,279,281,281,283,283,285,285,286,286,287,287,292,292,296,296,297,297,298,298,300,300,305,305,307,307,310,310,315,315,317,317,318,318,321,321,322,322,330,330,331,331,332,332,333,333,334,334,335,335,337,337,338,338,339,339,340,340,345,345,346,346,349,349,353,353,365,365,366,366,377,377,380,380,381,381,382,382,383,383,385,385,386,386,389,389,390,390,391,391,392,392,393,393,395,395,396,396,399,399,420,420,421,421,425,425,426,426,427,427,429,429,430,430,432,432,433,433,435,435,436,436,437,437,440,440,441,441,444,444,452,452,453,453,456,456,458,458,459,459,460,460,462,462,465,465,467,467,473,473,474,474],"right_children":[2,4,6,8,10,12,14,16,18,20,22,24,26,28,30,32,34,-1,36,38,40,42,44,46,48,50,52,-1,54,56,58,60,62,64,66,-1,68,70,72,74,76,-1,-1,-1,78,80,82,84,-1,86,88,90,92,-1,-1,94,96,98,100,102,104,106,108,110,112,-1,-1,114,-1,-1,-1,116,-1,118,120,122,-1,124,-1,126,128,130,132,-1,134,136,138,140,142,144,146,148,-1,150,152,154,156,158,160,-1,162,164,166,168,170,172,-1,-1,-1,-1,-1,174,-1,-1,-1,176,-1,-1,-1,-1,178,180,-1,-1,-1,182,184,186,-1,188,190,-1,192,-1,-1,194,196,198,200,-1,-1,-1,-1,202,204,206,208,210,212,214,216,-1,-1,218,-1,-1,-1,220,222,224,226,228,230,232,-1,234,236,-1,-1,238,240,-1,-1,-1,-1,-1,-1,242,-1,-1,-1,244,246,-1,-1,-1,-1,248,-1,250,-1,-1,-1,252,-1,254,256,258,260,262,264,266,268,270,272,274,-1,-1,-1,276,-1,278,-1,280,282,-1,-1,284,-1,286,288,290,292,294,296,298,300,302,-1,304,-1,306,-1,-1,-1,308,-1,310,312,314,-1,-1,-1,316,318,-1,320,322,-1,-1,-1,324,-1,-1,-1,-1,326,328,-1,330,-1,-1,-1,-1,-1,332,334,336,338,340,342,-1,-1,344,-1,-1,-1,-1,-1,346,-1,348,-1,350,-1,352,354,356,-1,-1,-1,-1,358,-1,-1,-1,360,362,364,-1,366,-1,-1,-1,-1,368,-1,370,-1,-1,372,-1,-1,-1,-1,374,-1,376,378,-1,-1,380,382,-1,-1,-1,-1,-1,-1,-1,384,386,388,390,392,394,-1,396,398,400,402,-1,-1,-1,-1,404,406,-1,-1,408,-1,-1,-1,410,-1,-1,-1,-1,-1,-1,-1,-1,-1,-1,-1,412,414,-1,-1,-1,-1,-1,-1,-1,-1,-1,-1,416,-1,-1,418,420,422,424,-1,426,428,-1,-1,430,432,434,436,438,-1,440,442,-1,-1,444,-1,-1,-1,-1,-1,-1,-1,-1,-1,-1,-1,-1,-1,-1,-1,-1,-1,-1,-1,-1,446,448,-1,-1,-1,450,452,454,-1,456,458,-1,460,462,-1,464,466,468,-1,-1,470,472,-1,-1,474,-1,-1,-1,-1,-1,-1,-1,476,478,-1,-1,480,-1,482,484,486,-1,488,-1,-1,490,-1,492,-1,-1,-1,-1,-1,494,496,-1,-1,-1,-1,-1,-1,-1,-1,-1,-1,-1,-1,-1,-1,-1,-1,-1,-1,-1,-1,-1,-1],"split_conditions":[1.5E0,2.5E0,2.5E0,3.5E0,2.5E0,3.25E1,2.25E1,1.5E0,4E0,6.75E1,6.75E1,1.5E0,4.25E1,1.75E1,1.5E0,7E0,2.5E0,1.1996297E0,6E0,6.25E1,4E0,1.5E0,3.5E0,1.5E0,6E0,5.5E0,2.5E0,8.45625E-1,4E0,1.5E0,5E-1,1.5E0,1.5E0,1.5E0,2.5E0,-0E0,2E0,4E1,1.5E0,7.25E1,5.5E0,7.6053965E-1,2.9818183E-1,5.994152E-1,4.5E0,5E-1,2.5E0,5E-1,2.46E-1,3.5E0,7.5E0,2.5E0,3.5E0,1.4269607E-1,7.165049E-2,7E0,5E-1,6.25E1,3.25E1,5.75E1,5.25E1,6E1,4.5E1,5E-1,6.75E1,6.677844E-1,4.136607E-1,1.5E0,2.255E-1,-0E0,8.744531E-1,1.5E0,9.1258067E-1,1.5E0,1.5E0,7.75E1,5.808333E-1,3.5E0,6.91875E-1,4.5E0,2.5E0,5E0,5E-1,1.1007608E0,2.5E0,1.5E0,3.75E1,5E-1,1.5E0,3.5E0,8.65E1,5E1,8.053571E-2,3.75E1,7.5E0,3.5E0,2.5E0,1.5E0,2.5E0,1.5375E-1,2.5E0,5E-1,1.5E0,5E-1,6.25E1,8.5E0,3.2458335E-1,3.075E-1,7.579605E-1,5.771196E-1,1.3666667E-1,1.5E0,5.839394E-1,2.296E0,7.3054546E-1,1.5E0,5.440385E-1,7.7614975E-1,4.8E-1,9.957143E-1,7.75E1,7.25E1,-0E0,3.775633E-1,6.91875E-1,1.5E0,4.5E0,2.75E1,3.895E-1,1.5E0,2.5E0,4.3946105E-1,5E-1,1.5375E-1,8.45625E-1,5E-1,2.5E0,1.5E0,1.5E0,7.175E-1,4.5641512E-1,8.9999996E-2,3.5875E-1,6.75E1,1.5E0,4.5E0,3E0,5E-1,8.4E1,5E-1,5.5E1,7.037702E-1,2.277778E-1,2.5E0,1.0789473E0,9.1461533E-1,1.6513889E0,5.5E0,5.5E0,2.5E0,2.5E0,4.5E0,4E0,3.5E0,4.4075E-1,7.25E1,7.75E1,4.469E-1,2.1578948E-1,5.5E0,7.75E1,1.2792E0,8.2E-2,1.2961291E-1,3.075E-1,6.6625E-1,1.00705005E-1,2.5E0,-0E0,2.8258145E-1,8.7125E-1,1.5E0,1.75E1,1.5147222E0,-0E0,1.3965625E0,2.7333334E-1,2.5E0,1.1714286E-1,5E0,-0E0,3.4692308E-1,6.330094E-1,5.5E0,8.9687496E-1,4E0,1.5E0,5E0,2.5E0,4.5E0,3.5E0,5.25E1,2.5E0,1.5E0,2.5E0,5.75E1,3.6444443E-1,4.6857145E-1,2.1964286E-2,1.5E0,5.231035E-1,5E-1,3.9828572E-1,2.5E0,2.5E0,4.3157896E-1,8.2E-2,3.75E1,1.7571428E-1,2.5E0,4E1,6.5E0,3.75E1,6.75E1,3.5E0,7E0,4E0,3.5E0,4.8174998E-1,2.5E0,2.0044444E0,4.25E1,-0E0,8.547457E-1,6.087879E-1,4.5E0,1.5375E0,2.5E0,5.75E1,1.5E0,3.8842106E-1,5.1229864E-1,7.559375E-1,5E-1,3.5E0,1.0142106E0,1.5E0,5E-1,6.6117114E-1,5.6374997E-1,-0E0,1.5E0,-0E0,5.0972974E-1,2.2208335E-1,1.5033333E0,2.5E0,5E-1,1.5375E-1,5E-1,3.4166668E-2,1.9078226E0,4.4153848E-1,3.4477273E-1,9.690909E-1,5E-1,3.5E0,5E-1,8.65E1,2.5E0,1.5E0,2.0280359E0,9.111112E-1,1.5E0,6.321788E-1,2.8426665E-1,-0E0,6.5160716E-1,9.1258067E-1,5.5E0,8.209404E-1,1.5E0,9.5666665E-1,2.75E1,9.1204077E-1,5E-1,3.25E1,7.5E0,5.035088E-2,4.4843748E-1,8.2E-2,9.457333E-1,2.5E0,1.79375E-1,1.5281818E0,4.133884E-1,5.5E0,6.5E0,3.5E0,3.1538463E-1,6.75E1,1.4909091E0,8.923529E-1,1.066E0,3.188889E-1,3.75E1,8.229026E-1,6.25E1,9.5666665E-1,5.631868E-1,1.5E0,5.6185186E-1,1.025E-1,1.5375E-1,8.316885E-1,5E-1,2.5E-1,2.75E1,1.5E0,4.6930814E-1,3.458453E-1,1.5E0,5E-1,1.312E0,6.4173913E-1,3.459375E-1,7.253846E-1,8.422826E-1,6.4955056E-1,1.3066906E0,1.5E0,3.5E0,1.5E0,5.75E1,4.5E0,2.5E0,1.317857E-1,4.5E0,3E0,1.5E0,8E0,1.5033333E0,3.664375E-1,1.1714286E-1,4.3342856E-1,5E-1,2.75E1,3.4166668E-2,3.188889E-1,5.5E0,4.232258E-1,7.542949E-1,4.926613E-1,4E0,5.4798836E-1,4.8402777E-1,8.785714E-1,9.926316E-1,5.7489127E-1,4.56125E-1,8.405E-1,7.680479E-1,1.5375E-1,6.7556816E-1,1.1003677E0,5.5E0,8.5E0,8.5057014E-1,5.5613863E-1,4.3603173E-1,5.671667E-1,7.4190474E-1,1.4057143E0,2.9773808E-1,5.466667E-1,6.277367E-1,5.518786E-1,4.5E0,1.5375E-1,4.582353E-1,5E-1,1.5E0,3E0,3.5E0,1.3666667E0,1.5E0,7.5E0,7.1605635E-1,1.0442188E0,2.5E0,1.5E0,6.25E1,5.5E0,1.5E0,8.580412E-1,3.5E0,5.5E0,8.843137E-2,2.5625E-1,5.25E1,6.2354165E-1,7.374306E-1,1.5375E-1,8.8406247E-1,3.075E-1,1.306875E0,6.40625E-1,5.7151514E-1,9.9083334E-1,3.28E-1,-0E0,6.808928E-1,2.9818183E-1,1.1274999E0,4.1E-1,7.845679E-1,-0E0,8.411029E-1,3.895E-1,1.4924E0,2.75E1,2.25E1,4.3157896E-1,4.0145835E-1,1.07625E0,1.5E0,2.5E0,1.5E0,1.5033333E0,2.5E0,2.5E0,-0E0,1.5E0,5.75E1,7.8041375E-1,1.5E0,6.25E1,9.85E1,2.3428573E-1,6.360491E-1,1.5E0,1.5E0,6.9016665E-1,1.8859999E0,6E1,9.9786764E-1,1.7571428E0,1.5375E-1,7.8781974E-1,6.43686E-1,8.541667E-2,7.6709676E-1,2.5E0,2.5E0,6.4703125E-1,6.776389E-1,1.5E0,9.135088E-1,1.5E0,1.5E0,2.5E0,7.127692E-1,1.5E0,7.758084E-1,4.1E-1,5.75E1,7.6533335E-1,5E-1,4.8838234E-1,5.38125E-1,1.79375E-1,1.558E0,6.491667E-1,1.5E0,1.5E0,8.2931817E-1,3.8302633E-1,2.4053332E-1,6.882143E-1,9.8870814E-1,3.7583333E-1,6.916161E-1,1.0363889E0,3.3824998E-1,6.867987E-1,1.5033333E0,3.505797E-1,1.1414554E0,7.6652175E-1,3.3953124E-1,4.5555554E-2,6.580022E-1,9.310416E-1,-0E0,8.2E-1,1.2197499E0,6.377778E-1],"split_indices":[0,6,5,4,2,3,3,4,5,3,3,4,3,3,6,5,4,0,4,3,5,1,2,1,4,2,1,0,6,4,7,5,1,6,2,0,1,3,4,3,5,0,0,0,2,7,2,8,0,2,2,4,1,0,0,5,7,3,3,3,3,3,3,7,3,0,0,6,0,0,0,5,0,5,2,3,0,5,0,6,2,9,7,0,4,1,3,7,1,6,3,3,0,3,2,2,4,4,2,0,1,8,6,7,3,5,0,0,0,0,0,5,0,0,0,2,0,0,0,0,3,3,0,0,0,6,2,3,0,5,1,0,8,0,0,8,1,6,6,0,0,0,0,3,1,2,2,7,3,7,3,0,0,2,0,0,0,2,5,6,4,2,2,2,0,3,3,0,0,5,3,0,0,0,0,0,0,5,0,0,0,2,3,0,0,0,0,1,0,8,0,0,0,6,0,6,6,8,1,2,6,3,6,4,2,3,0,0,0,5,0,8,0,2,1,0,0,3,0,2,3,2,3,3,6,5,5,2,0,2,0,3,0,0,0,7,0,5,3,2,0,0,0,2,2,0,2,8,0,0,0,2,0,0,0,0,2,8,0,8,0,0,0,0,0,8,2,7,3,2,2,0,0,2,0,0,0,0,0,5,0,1,0,3,0,8,3,2,0,0,0,0,4,0,0,0,5,2,2,0,3,0,0,0,0,3,0,3,0,0,6,0,0,0,0,8,0,3,5,0,0,2,7,0,0,0,0,0,0,0,1,2,4,3,2,2,0,2,2,5,2,0,0,0,0,8,3,0,0,4,0,0,0,2,0,0,0,0,0,0,0,0,0,0,0,4,2,0,0,0,0,0,0,0,0,0,0,9,0,0,7,2,6,6,0,6,2,0,0,2,2,3,2,5,0,2,2,0,0,3,0,0,0,0,0,0,0,0,0,0,0,0,0,0,0,0,0,0,0,0,3,3,0,0,0,1,6,5,0,6,6,0,5,3,0,5,3,3,0,0,5,5,0,0,3,0,0,0,0,0,0,0,2,6,0,0,5,0,4,6,6,0,5,0,0,3,0,8,0,0,0,0,0,2,2,0,0,0,0,0,0,0,0,0,0,0,0,0,0,0,0,0,0,0,0,0,0],"split_type":[0,0,0,0,0,0,0,0,0,0,0,0,0,0,0,0,0,0,0,0,0,0,0,0,0,0,0,0,0,0,0,0,0,0,0,0,0,0,0,0,0,0,0,0,0,0,0,0,0,0,0,0,0,0,0,0,0,0,0,0,0,0,0,0,0,0,0,0,0,0,0,0,0,0,0,0,0,0,0,0,0,0,0,0,0,0,0,0,0,0,0,0,0,0,0,0,0,0,0,0,0,0,0,0,0,0,0,0,0,0,0,0,0,0,0,0,0,0,0,0,0,0,0,0,0,0,0,0,0,0,0,0,0,0,0,0,0,0,0,0,0,0,0,0,0,0,0,0,0,0,0,0,0,0,0,0,0,0,0,0,0,0,0,0,0,0,0,0,0,0,0,0,0,0,0,0,0,0,0,0,0,0,0,0,0,0,0,0,0,0,0,0,0,0,0,0,0,0,0,0,0,0,0,0,0,0,0,0,0,0,0,0,0,0,0,0,0,0,0,0,0,0,0,0,0,0,0,0,0,0,0,0,0,0,0,0,0,0,0,0,0,0,0,0,0,0,0,0,0,0,0,0,0,0,0,0,0,0,0,0,0,0,0,0,0,0,0,0,0,0,0,0,0,0,0,0,0,0,0,0,0,0,0,0,0,0,0,0,0,0,0,0,0,0,0,0,0,0,0,0,0,0,0,0,0,0,0,0,0,0,0,0,0,0,0,0,0,0,0,0,0,0,0,0,0,0,0,0,0,0,0,0,0,0,0,0,0,0,0,0,0,0,0,0,0,0,0,0,0,0,0,0,0,0,0,0,0,0,0,0,0,0,0,0,0,0,0,0,0,0,0,0,0,0,0,0,0,0,0,0,0,0,0,0,0,0,0,0,0,0,0,0,0,0,0,0,0,0,0,0,0,0,0,0,0,0,0,0,0,0,0,0,0,0,0,0,0,0,0,0,0,0,0,0,0,0,0,0,0,0,0,0,0,0,0,0,0,0,0,0,0,0,0,0,0,0,0,0,0,0,0,0,0,0,0,0,0,0,0,0,0,0,0,0,0,0,0,0,0,0,0,0,0,0,0,0,0,0,0,0,0,0,0,0,0,0,0,0,0,0,0,0,0,0,0,0,0],"sum_hessian":[2.913E4,1.385E4,1.528E4,2.748E3,1.1102E4,9.072E3,6.208E3,2.541E3,2.07E2,1.0159E4,9.43E2,2.728E3,6.344E3,2.1E2,5.998E3,2.03E3,5.11E2,1.34E2,7.3E1,8.973E3,1.186E3,6.02E2,3.41E2,2.637E3,9.1E1,9.79E2,5.365E3,7E0,2.03E2,1.381E3,4.617E3,1.853E3,1.77E2,2.9E2,2.21E2,6E0,6.7E1,6.5E1,8.908E3,7.62E2,4.24E2,5.92E2,1E1,1.7E2,1.71E2,1.375E3,1.262E3,8.7E1,4E0,8.27E2,1.52E2,5.088E3,2.77E2,1.01E2,1.02E2,1.177E3,2.04E2,4.549E3,6.8E1,1.287E3,5.66E2,8.9E1,8.8E1,9.9E1,1.91E2,1.66E2,5.5E1,5.8E1,9E0,2E0,6.3E1,8.878E3,3E1,2.26E2,5.36E2,4.07E2,1.7E1,1.64E2,7E0,1.349E3,2.6E1,5.5E2,7.12E2,4.5E1,4.2E1,3.56E2,4.71E2,1.09E2,4.3E1,4.793E3,2.95E2,2.5E2,2.7E1,3.04E2,8.73E2,1.75E2,2.9E1,4.024E3,5.25E2,3E0,6.5E1,7.97E2,4.9E2,1.67E2,3.99E2,7.8E1,1.1E1,1.3E1,7.5E1,9.1E1,8E0,1.59E2,3.2E1,4E0,5.4E1,8.853E3,2.5E1,1.86E2,4E1,6E0,5.3E2,4.01E2,6E0,1.57E2,7E0,1.322E3,2.7E1,1.7E1,9E0,5.31E2,1.9E1,1.66E2,5.46E2,3E0,3.9E1,2.54E2,1.02E2,3.45E2,1.26E2,5.7E1,5.2E1,4E1,3E0,4.501E3,2.92E2,2.62E2,3.3E1,1.03E2,1.47E2,2.82E2,2.2E1,8.65E2,8E0,1.57E2,1.8E1,1.2E1,1.7E1,3.868E3,1.56E2,2.05E2,3.2E2,4.5E1,2E1,7.78E2,1.9E1,9E1,4E2,1.49E2,1.8E1,1.51E2,2.48E2,7.4E1,4E0,1.54E2,5E0,3E0,8.85E3,5.23E2,7E0,3.98E2,3E0,8.69E2,4.53E2,1.7E1,1E1,1.5E1,2E0,5.25E2,6E0,5E0,1.4E1,1.2E1,5.34E2,1.19E2,1.35E2,4.7E1,5.5E1,1.36E2,2.09E2,7.3E1,5.3E1,2.974E3,1.527E3,2.57E2,3.5E1,2.18E2,4.4E1,6E0,2.7E1,7.5E1,2.8E1,1.13E2,3.4E1,2.67E2,1.5E1,1.8E1,4E0,1.51E2,6E0,3.771E3,9.7E1,1.9E1,1.37E2,1.7E1,1.88E2,2.58E2,6.2E1,2.6E1,1.9E1,1.2E1,8E0,7.77E2,1E0,5.8E1,3.2E1,3.99E2,1E0,1.16E2,3.5E1,2.3E2,1.8E1,5.08E2,1.5E1,9.5E1,7.74E2,1.8E1,4.35E2,4.15E2,1.1E2,3E0,2E0,1.18E2,1E0,3.6E1,1.1E1,2E0,5.3E1,1.33E2,3E0,2.04E2,5E0,6.1E1,1.2E1,2.1E1,3.2E1,8.78E2,2.096E3,1.071E3,4.56E2,1.76E2,8.1E1,2.7E1,8E0,4E1,1.78E2,7.4E1,1E0,8.3E1,3E1,5E1,2.17E2,1.3E1,2E0,1.03E2,4.8E1,1.38E2,3.633E3,4.1E1,5.6E1,1.5E1,4E0,7.4E1,6.3E1,7E0,1E1,1.2E2,6.8E1,1.48E2,1.1E2,1.2E1,5E1,1E1,1.6E1,4E0,8E0,2.13E2,5.64E2,3.91E2,8E0,9E1,2.6E1,2.6E1,9E0,3E0,2.27E2,5.5E1,4E1,6.9E2,8.4E1,1.58E2,2.77E2,1.26E2,2.89E2,4E0,1.14E2,1.5E1,3.8E1,4.5E1,8.8E1,1.38E2,6.6E1,6.35E2,2.43E2,1.345E3,7.51E2,1.058E3,1.3E1,4.03E2,5.3E1,1.02E2,7.4E1,2E0,7.9E1,6E0,3.4E1,2E1,3E1,5E0,8E0,7.3E1,3E1,7.7E1,6.1E1,1.5E1,3.618E3,3.5E1,6E0,1.8E1,4.5E1,3.9E1,2.9E1,1.45E2,3E0,4.3E1,6.7E1,3.7E1,1.3E1,1.13E2,1E2,6.2E1,3.29E2,2E1,6E0,4.1E1,1.4E1,3.37E2,3.53E2,8.1E1,3E0,5E1,7.6E1,9.7E1,1.92E2,3.4E1,3.2E1,5.15E2,1.2E2,2.12E2,3.1E1,6.17E2,7.28E2,4.88E2,2.63E2,9.62E2,9.6E1,3.65E2,3.8E1,5E1,3E0,7.9E1,2.3E1,7.1E1,3E0,1.5E1,5E0,2.3E1,7E0,3.2E1,4.1E1,1.4E1,1E0,2.7E1,1E1,9E0,4E0,8E1,1E0,6.7E1,9E0,2.4E1,7.3E1,1.74E2,1.8E1,2.3E1,1.1E1,3.03E2,2.12E2,1.18E2,2E0,2.48E2,3.69E2,9E0,7.19E2,3.44E2,1.44E2,1.8E2,8.3E1,9.56E2,6E0,2.23E2,1.42E2,9E0,2.9E1,4E0,7.5E1,6.7E1,6E0,3E0,1.71E2,2.92E2,1.1E1,1.54E2,5.8E1,8.7E1,3.1E1,3.5E1,2.13E2,5.6E1,3.13E2,6.49E2,7E1,6.4E1,2.8E2,1.66E2,1.4E1,3.9E1,4.4E1,9.23E2,3.3E1,1.35E2,7E0,4E0,5E0,8E0,6.7E1,2.1E1,3.7E1,7.4E1,1.3E1,2.08E2,5E0,2.96E2,1.7E1,1.9E1,6.3E2,2E0,6.8E1,2.12E2,6.8E1,3.1E1,8E0,9E2,2.3E1,6E0,2E0,5.9E1,8E0],"tree_param":{"num_deleted":"0","num_feature":"10","num_nodes":"497","size_leaf_vector":"0"}},{"base_weights":[7.0713377E-1,4.3087173E-1,9.5743144E-1,1.0125417E0,2.8672674E-1,1.0104175E0,8.7968963E-1,9.6907574E-1,1.5340705E0,2.235347E-1,9.654814E-1,9.0122306E-1,1.0570652E0,2.1023682E-1,9.029227E-1,1.0449479E0,6.642603E-1,9.896613E-1,1.6937591E0,1.5981644E-1,7.04229E-1,1.0875269E0,7.445489E-1,8.828266E-1,1.4080559E0,1.2789835E0,1.0161527E0,1.5453125E0,1.6547617E-1,1.1054907E0,8.418893E-1,1.0146672E0,1.3488553E0,4.9211285E-1,8.824164E-1,3.089639E0,1.6019657E0,1.2183251E0,1.5184458E-1,8.491155E-1,4.401051E-1,1.1102903E0,6.822744E-1,8.6607844E-1,6.1358327E-1,7.9658127E-1,9.752976E-1,1.4377856E0,4.032E-1,1.3837091E0,6.973377E-1,9.974153E-1,1.3044167E0,1.0291672E-1,1.9907813E0,2.1535042E-1,1.0380241E-1,1.0625635E0,1.3418941E0,8.2999927E-1,1.5992478E0,9.935792E-1,1.157031E0,1.6437864E0,1.0242187E0,7.9888785E-1,3.2456276E-1,9.6495676E-1,6.0265464E-1,1.2252777E0,3.7632E0,8.456912E-1,1.7978247E0,-0E0,1.2720227E0,1.4755724E-1,1.3426638E0,1.0547848E0,7.587318E-1,4.161743E-1,8.5389584E-1,1.0917114E0,2.147028E0,1.6971773E-1,9.785758E-1,9.8562604E-1,6.4057577E-1,5.810875E-1,1.0821095E0,7.793307E-1,1.5925702E0,1.1396397E0,8.45525E-1,1.0923308E0,1.5990446E0,8.806265E-1,2.0053981E-1,1.0134338E0,7.0316195E-1,1.1104271E0,2.3904314E0,1.2091255E0,1.0090579E0,1.1968027E0,2.1150334E0,8.007067E-1,1.0506698E0,2.596875E-1,1.6410507E0,1.030609E0,7.7521914E-1,1.1983923E0,5.167802E-1,2.8690667E0,1.4242023E0,4.644643E-1,1.1006968E0,8.3676213E-1,2.1185184E-1,2.1625355E-1,9.9941826E-1,1.5431745E0,6.054028E-1,1.4550053E-1,8.038091E-1,1.6070659E0,6.249266E-1,1.1210489E0,7.02439E-1,1.5751021E0,7.4465775E-1,1.4715626E0,5.995098E-1,1.2509937E0,1.0004481E0,3.0545955E0,7.9156834E-1,3.7404022E-1,-5.0702643E-1,1.261172E0,4.9041852E-1,1.0083461E0,1.2046783E-1,4.8429212E-1,8.614289E-1,5.457125E-1,1.0821095E0,7.644344E-1,1.4196329E0,2.3448176E0,8.663489E-1,1.1713021E0,1.904375E-1,6.3502675E-1,9.064166E-1,1.1231016E0,7.258811E-1,1.4788319E0,1.9060884E0,1.0448707E0,6.65404E-1,1.3170736E-1,6.0593754E-1,1.0516304E0,8.727239E-1,7.6424456E-1,1.1876915E-1,1.3705552E0,6.240323E-1,2.9278502E0,1.5380154E0,1.2504584E0,6.0450333E-1,1.2019303E0,9.692703E-1,1.1332806E0,1.6094184E0,1.7714062E0,3.2788887E0,7.8485936E-1,1.1797688E0,8.1646883E-1,1.1945785E0,1.3947829E0,2.0547302E0,1.1101545E0,8.8514316E-1,5.427807E-1,1.0443462E0,4.184E0,1.1892571E0,1.5526824E0,4.9413195E-1,1.0502903E0,6.9463646E-1,1.8735231E-1,4.493561E-1,1.4994806E0,7.0995224E-1,3.6972758E-1,1.4155636E0,1.1253126E0,1.449283E-1,1.0700432E0,1.7489548E0,7.5365126E-1,-0E0,-0E0,8.3560604E-1,1.1248065E0,1.5680984E0,-3.661768E-1,1.0270942E0,-0E0,4.5619833E-1,3.4468526E-1,8.105263E-1,8.425889E-1,6.1078054E-1,2.2638733E0,-0E0,-0E0,9.7533625E-1,1.1802958E0,1.853061E-1,4.68125E-1,-0E0,9.043644E-1,5.741972E-1,1.0293282E0,8.395694E-1,1.2132804E0,9.0724725E-1,1.0472671E0,1.7485725E0,2.4570858E0,1.0972011E0,1.0667237E0,8.2830393E-1,9.310231E-1,1.73757E-1,5.273531E-1,9.282705E-1,1.5032659E0,8.987759E-1,5.013101E-1,1.3886595E0,3.0596907E0,-0E0,1.1029747E0,1.3901842E0,1.5554905E0,9.919693E-1,8.755556E-1,1.127101E0,9.1922486E-1,1.2945377E0,2.9473686E0,1.2198143E0,3.0405092E0,1.2768335E0,7.937839E-1,4.231423E-1,1.2806463E0,7.144454E-1,1.609031E0,7.313758E-1,1.1575507E0,2.1303897E0,1.8078986E0,7.173375E-1,1.0911453E0,3.1071606E0,1.0494962E0,1.247032E0,1.281124E0,8.2478714E-1,1.4424801E0,4.9666405E-1,1.3392177E0,9.202409E-1,1.6236E0,1.3439998E-1,5.0385725E-1,9.260937E-1,7.3821676E-1,1.1350585E0,1.0351361E0,-0E0,1.5964027E-1,-1.3026983E-1,4.962438E-1,8.831135E-1,1.4124029E0,5.6240535E-1,1.1202916E0,8.2874954E-2,1.2345299E0,9.5739794E-1,9.521875E-1,-0E0,2.5448507E-1,1.1746249E0,8.948473E-1,2.4091911E0,5.205009E-1,8.5855824E-1,1.2209979E0,-0E0,6.813919E-1,1.0667796E0,1.0591362E0,1.3783711E-1,1.7847369E0,5.486107E-2,2.7761745E0,6.6934913E-1,5.1180786E-1,1.4239118E0,9.4518536E-1,1.0955133E0,8.851402E-1,5.325432E-1,9.398893E-1,1.9905615E-1,1.384771E-1,1.0157143E0,6.350891E-1,2.909838E-1,1.0254139E0,5.8452237E-1,1.7406067E0,1.1195065E0,1.0431721E0,5.2740884E-1,2.6644444E0,7.67058E-1,1.1598213E0,4.1271824E-1,1.7775167E0,1.1978322E0,1.1530885E0,2.5042121E0,5.885071E-1,9.7864556E-1,1.1458569E0,3.5308644E-1,1.2573713E0,6.373666E-1,1.5354365E0,1.0124401E0,4.0509265E-2,1.598153E0,7.9459393E-1,1.01724215E-1,8.639904E-1,7.333946E-2,1.870536E-1,1.3254339E0,9.461474E-1,2.7753228E-1,2.805469E-1,2.3380165E0,5.982925E-1,9.3966126E-1,1.2380743E0,8.5270184E-1,2.823983E0,6.7200005E-1,1.354765E0,2.4525251E0,1.7472E0,4.94321E-1,1.0519754E0,-0E0,1.1536382E0,2.216283E0,1.3023196E0,9.683625E-2,8.0676764E-1,1.482963E0,-9.734285E-2,5.3395516E-1,6.891775E-1,1.6065078E0,8.518663E-1,1.1149802E0,6.668562E-1,4.989239E-1,1.3739635E0,8.2874954E-2,9.860539E-1,1.3356398E0,1.0020729E0,4.666112E-1,1.802915E-1,5.555825E0,1.3361675E-1,6.033731E-1,8.3744866E-1,1.6002777E0,2.1504E0,1.1894933E0,2.6644444E0,9.397467E-1,2.0661469E0,1.5598536E0,9.766507E-1,1.8288485E0,9.347857E-1,2.6644444E0,-0E0,1.0991988E0,9.098541E-1,4.497165E-1,9.5885265E-1,7.5939375E-1,1.0878713E-1,4.328125E-1,1.809981E-1,1.1438222E0,3.0912E0,1.6156912E0,1.1661938E0,2.1005554E-1,1.1795874E0,3.7817562E-1,9.9375E-1,1.9601392E0,6.1386E-1,-0E0,1.6352487E-1,9.873125E-1,2.308334E-1,7.6814395E-1,5.2782995E-1,1.3884828E0,9.414889E-1,7.884713E-1,7.09973E-1,1.3897959E0,1.5442725E0,1.1011201E0,-0E0,3.8387746E-1,5.0237614E-1,8.9097273E-1,6.271309E-1,1.3391831E0,1.2654991E0,4.5619836E-1,1.6783215E-1,9.4583076E-1,1.0821977E0,8.491851E-1,7.6288396E-1,9.64144E-1,-6.224167E-1,1.02655E0,3.9263365E-1,6.884982E-1,1.7941471E0,2.5123364E-1,8.5969055E-1,2.5417048E-1,1.1223015E0,-0E0,5.1649386E-1,1.9644696E-1,6.683968E-1,1.1706573E0,1.788596E0,1.0935396E0,9.0653396E-1,1.7456256E0,9.839752E-1,-1.3430934E-1,9.893402E-1,1.3001167E0,5.194336E-1,1.0624458E0,2.1052516E0,-0E0,1.7296466E0,9.5948607E-1,8.5045946E-1,1.0928264E0,1.0903549E0,1.4829351E0,9.97263E-2,1.0580449E0,5.9555554E-1,1.7122431E0,2.4650445E0,1.4323068E0,1.4964654E0,9.5574313E-1,-0E0,1.3394445E0,1.0095881E0,4.161908E-1,1.0951191E0,7.168978E-1,7.8921485E-1,2.9067695E-1,3.7787437E-1,1.178455E0,6.7592305E-1,-0E0,3.2906234E-2,1.45462E0,1.377776E0,9.716902E-1,1.0946465E0,6.5628743E-1,7.247442E-1,9.541766E-1,1.0254925E0,3.0148035E-1,-1.6584426E-1,7.7887434E-1,4.706562E-1,7.85847E-1,1.6828834E0,2.7795918E0,8.633176E-1,1.27264E0,1.0807614E0,7.220522E-1,-6.208784E-1,2.2588587E-1,1.1228795E0,5.8393043E-1,1.2424954E0,3.0687501E0,2.3096591E-1,7.950521E-1,4.2718253E-1,1.881375E0,9.3318045E-1,5.9276223E-1,1.01116E0,1.5352881E0,1.1390399E0,1.031273E0,-0E0,7.3146904E-1,1.3384008E0,7.171583E-1,-0E0,1.4533334E0,1.7556368E0,-0E0,5.504042E-3,7.360279E-1,-0E0,5.6160927E-1,4.344701E-1,-0E0,1.2869167E0,4.444758E-1,1.9792778E0,1.0324706E0,3.1113498E0,1.237599E0,1.1122077E0,-0E0,3.5155058E-1,6.3074E-1,1.503777E0,3.6484364E-1,2.207296E0,1.4506304E0,6.9131994E-1,1.2658393E0,9.534783E-1,2.0009782E0,-0E0,8.105797E-1,1.4443954E0,7.347562E-1,9.5667E-1,1.300347E-1,4.3903986E-1,9.5131344E-1,3.9474648E-1,1.0684773E0,1.0637047E0,1.2963227E0,1.0060371E0,1.1702795E0,-7.168205E-2,3.595238E-1,3.1063335E0,1.8046427E-1,-7.2399974E-2,5.607685E-1,1.0013686E0,1.372476E0,2.945367E-1,6.744985E-1,6.4696616E-1,-0E0,4.178469E-1,2.5233238E0,8.203372E-1,1.7152174E0,4.8660868E-1,3.1436958E0,1.5167259E0,-0E0,8.795038E-1,-0E0,3.4934044E-1,9.1980517E-1,1.1558034E0,7.5782704E-1,9.062025E-1,1.481708E0,1.1580613E0,9.6786726E-1,-1.5113248E-1,2.2799857E-1,1.1199986E0,1.7408197E0],"categories":[],"categories_nodes":[],"categories_segments":[],"categories_sizes":[],"default_left":[1,1,1,1,1,1,1,1,1,1,1,1,1,1,1,1,1,0,1,1,1,1,1,1,1,1,1,1,1,1,1,1,1,1,1,1,1,1,1,1,1,1,1,1,1,1,1,0,0,1,1,1,1,0,0,0,0,1,1,1,1,1,1,1,1,1,1,0,0,0,0,1,0,0,0,1,1,1,1,0,1,1,1,1,1,1,1,1,0,1,1,1,1,1,1,1,1,1,1,1,1,1,1,1,1,1,1,0,1,1,1,0,0,1,1,0,0,1,0,1,1,0,1,1,0,0,0,1,0,0,1,0,1,1,1,0,0,1,0,0,0,0,0,1,0,0,0,1,1,0,1,1,1,1,1,1,0,1,1,0,0,0,0,1,1,1,0,1,1,1,0,1,0,1,1,1,1,1,0,1,1,1,1,1,1,1,1,1,1,0,0,1,0,0,1,0,0,0,0,0,0,0,0,0,0,1,0,0,0,0,0,0,1,1,0,0,0,1,1,0,0,0,1,1,0,1,0,1,0,1,1,1,1,1,1,1,1,1,1,1,1,1,1,1,1,0,1,0,0,1,1,1,0,1,1,1,1,0,0,0,1,1,1,1,1,1,1,1,1,1,0,1,0,1,1,1,1,0,1,1,0,0,0,0,0,0,0,0,0,0,0,0,1,0,1,1,0,1,1,0,0,0,0,0,1,1,1,1,0,0,1,0,0,1,0,0,0,0,1,1,1,1,0,1,0,1,0,0,1,0,0,1,1,0,0,0,0,1,0,1,0,0,0,1,1,0,0,0,1,0,1,0,0,1,0,1,0,0,1,0,1,0,0,1,1,1,1,0,0,0,0,0,0,1,0,0,0,0,0,1,0,1,1,0,1,1,1,0,1,0,0,1,1,1,1,0,0,0,0,0,0,0,1,0,1,1,1,0,0,1,0,0,1,0,0,0,1,0,0,0,0,0,1,0,0,0,0,0,1,0,0,0,1,1,1,0,0,1,1,0,0,0,1,0,0,0,0,1,1,1,0,0,0,1,0,1,1,0,0,0,0,0,1,0,0,0,0,1,0,0,0,1,1,1,0,0,1,1,1,1,0,0,0,0,1,1,1,1,0,1,1,1,1,0,0,0,0,0,0,0,0,0,1,0,1,1,0,1,0,0,1,1,0,0,0,0,0,0,1,0,0,1,1,1,0,1,0,0,0,0,0,1,1,1,0,0,0,0,0,1,1,1,0,1,1,1,0,0,0,0,0,0,0,0,0,0,0,0,0,1,1,0,0,0,1,0,0,1,1,1,0,0,0,0,0,1,1,0,0,1,1,0,0,1,0,0,0,1,1,1,0,1,0,0,0,0,0,0,1,0,0,0,0,0,0,0,0,0,0,0,0,0,0,0,0,0,0,0,0,0,0,0,0,0,0],"id":1,"left_children":[1,3,5,7,9,11,13,15,17,19,21,23,25,27,29,31,33,-1,35,37,39,41,43,45,47,49,51,53,55,57,59,61,63,65,67,69,71,73,75,77,79,81,83,85,87,89,91,-1,-1,93,95,97,99,-1,-1,-1,-1,101,103,105,107,109,111,113,115,117,119,-1,-1,-1,-1,121,-1,-1,-1,123,125,127,129,-1,131,133,135,137,139,141,143,145,-1,147,149,151,153,155,157,159,161,163,165,167,169,171,173,175,177,179,181,-1,183,185,187,-1,-1,189,191,-1,-1,193,-1,195,197,-1,199,201,-1,-1,-1,203,-1,-1,205,-1,207,209,211,-1,-1,213,-1,-1,-1,-1,-1,215,-1,-1,-1,217,219,-1,221,223,225,227,229,231,-1,233,235,-1,-1,-1,-1,237,239,241,-1,243,245,247,-1,249,-1,251,253,255,257,259,-1,261,263,265,267,269,271,273,275,277,279,-1,-1,281,-1,-1,283,-1,-1,-1,-1,-1,-1,-1,-1,-1,-1,285,-1,-1,-1,-1,-1,-1,287,289,-1,-1,-1,291,293,-1,-1,-1,295,297,-1,299,-1,301,-1,303,305,307,309,311,313,315,317,319,321,323,325,327,329,331,333,-1,335,-1,-1,337,339,341,-1,343,345,347,349,-1,-1,-1,351,353,355,357,359,361,363,365,367,369,-1,371,-1,373,375,377,379,-1,381,383,-1,-1,-1,-1,-1,-1,-1,-1,-1,-1,-1,-1,385,-1,387,389,-1,391,393,-1,-1,-1,-1,-1,395,397,399,401,-1,-1,403,-1,-1,405,-1,-1,-1,-1,407,409,411,413,-1,415,-1,417,-1,-1,419,-1,-1,421,423,-1,-1,-1,-1,425,-1,427,-1,-1,-1,429,431,-1,-1,-1,433,-1,435,-1,-1,437,-1,439,-1,-1,441,-1,443,-1,-1,445,447,449,451,-1,-1,-1,-1,-1,-1,453,-1,-1,-1,-1,-1,455,-1,457,459,-1,461,463,465,-1,467,-1,-1,469,471,473,475,-1,-1,-1,-1,-1,-1,-1,477,-1,479,481,483,-1,-1,485,-1,-1,487,-1,-1,-1,489,-1,-1,-1,-1,-1,491,-1,-1,-1,-1,-1,493,-1,-1,-1,495,497,499,-1,-1,501,503,-1,-1,-1,505,-1,-1,-1,-1,507,509,511,-1,-1,-1,513,-1,515,517,-1,-1,-1,-1,-1,519,-1,-1,-1,-1,521,-1,-1,-1,523,525,527,-1,-1,529,531,533,535,-1,-1,-1,-1,537,539,541,543,-1,545,547,549,551,-1,-1,-1,-1,-1,-1,-1,-1,-1,553,-1,555,557,-1,559,-1,-1,561,563,-1,-1,-1,-1,-1,-1,565,-1,-1,567,569,571,-1,573,-1,-1,-1,-1,-1,575,577,579,-1,-1,-1,-1,-1,581,583,585,-1,587,589,591,-1,-1,-1,-1,-1,-1,-1,-1,-1,-1,-1,-1,-1,593,595,-1,-1,-1,597,-1,-1,599,601,603,-1,-1,-1,-1,-1,605,607,-1,-1,609,611,-1,-1,613,-1,-1,-1,615,617,619,-1,621,-1,-1,-1,-1,-1,-1,623,-1,-1,-1,-1,-1,-1,-1,-1,-1,-1,-1,-1,-1,-1,-1,-1,-1,-1,-1,-1,-1,-1,-1,-1,-1,-1],"loss_changes":[2.012542E3,1.1597449E3,6.0166016E1,5.832666E1,4.748239E2,4.3304688E1,9.526807E1,5.6385498E1,1.3723022E1,3.1021408E2,2.2812012E1,2.1910889E1,5.4013184E1,1.0642613E1,7.129004E1,1.4958252E1,1.7419403E1,0E0,1.0603821E1,7.4170074E1,4.376117E1,3.0125732E0,3.4322662E0,1.8489746E1,3.2772827E-1,5.6648926E1,2.538086E1,1.5566702E0,2.9213572E-1,1.0194458E1,3.7828613E1,2.2658691E0,1.2691101E1,1.3574715E1,2.9772034E0,4.4664764E-1,1.8202667E1,5.589821E0,4.3796036E1,1.1569702E1,2.5830612E0,5.338562E0,4.304861E0,2.352295E0,3.2671356E-1,1.5281189E1,2.3987427E1,0E0,0E0,4.7514038E1,1.2674034E1,2.135498E1,6.1471558E1,0E0,0E0,0E0,0E0,5.7994385E0,1.7152954E1,2.6718506E1,1.5369263E0,1.0558838E1,3.6768188E0,1.5835281E1,1.7336044E0,9.9747086E-1,1.260207E1,0E0,0E0,0E0,0E0,2.6154842E0,0E0,0E0,0E0,1.0917877E1,2.646618E0,2.6890106E0,2.6772766E0,0E0,1.8922806E-1,4.637512E0,3.5772858E0,2.2690468E0,6.648388E-1,8.5295105E-1,4.8061752E-1,7.0606995E-1,0E0,9.607178E0,9.507446E0,1.4974976E1,7.021881E0,1.3613281E0,1.121814E1,1.4828568E0,4.1034758E-1,2.2848633E1,8.557114E0,3.1944458E1,1.2561981E1,5.0112915E0,3.3708496E0,4.637146E-2,1.1394348E0,2.1288086E1,1.4741699E1,0E0,4.084015E-1,1.3048096E1,1.3109558E1,0E0,0E0,1.6156944E1,6.6260986E0,0E0,0E0,3.175125E-1,0E0,4.1091108E-1,3.4478378E-1,0E0,3.0375118E0,3.5308533E0,0E0,0E0,0E0,1.2985687E0,0E0,0E0,3.1793213E0,0E0,1.5706081E0,3.386139E0,1.4328522E1,0E0,0E0,3.3060098E-1,0E0,0E0,0E0,0E0,0E0,5.2382755E-1,0E0,0E0,0E0,1.3919617E1,3.5822197E1,0E0,1.3089638E0,3.1333008E0,5.8951724E-1,7.382355E-1,1.7612E0,3.105011E0,0E0,3.5651E1,5.0353027E1,0E0,0E0,0E0,0E0,9.858398E0,4.0786682E1,7.380371E0,0E0,7.328888E0,6.70372E0,1.1952087E1,0E0,1.8053589E0,0E0,6.3765106E0,7.8671265E0,2.0501251E0,2.1417198E0,8.11969E0,0E0,1.0937012E1,4.459656E0,1.0375732E1,5.369049E0,9.051605E0,1.3707565E1,3.7592773E0,8.763458E0,2.9457245E0,5.3359985E-1,0E0,0E0,4.863312E0,0E0,0E0,7.9701996E-1,0E0,0E0,0E0,0E0,0E0,0E0,0E0,0E0,0E0,0E0,3.7353516E-1,0E0,0E0,0E0,0E0,0E0,0E0,2.7391968E0,1.10395506E-1,0E0,0E0,0E0,1.03932495E1,1.48363495E1,0E0,0E0,0E0,5.151291E-1,2.9847412E0,0E0,2.3117979E0,0E0,2.838522E0,0E0,2.8498535E1,3.8552856E-1,2.6985474E0,1.2361526E0,1.3581848E-1,1.0925415E1,3.690927E1,7.6632385E0,9.18457E0,2.2461853E0,4.845764E0,1.1408968E0,1.5120716E0,2.398903E0,7.4873047E0,1.8507385E-1,0E0,4.041073E0,0E0,0E0,3.6776428E0,5.177063E0,1.216172E1,0E0,1.1735474E1,1.9580994E0,4.3567543E0,1.6739197E0,0E0,0E0,0E0,6.638954E0,1.1374512E0,1.4111879E1,4.41098E0,1.7532101E0,1.4157536E1,3.1388016E0,4.512329E0,4.721588E0,7.5686646E-1,0E0,1.9849443E0,0E0,2.1547852E0,1.779007E1,3.1044006E-2,1.7084961E0,0E0,3.3903923E0,1.4621239E0,0E0,0E0,0E0,0E0,0E0,0E0,0E0,0E0,0E0,0E0,0E0,0E0,2.6983643E0,0E0,1.3593445E0,1.3240919E0,0E0,6.812683E0,4.9751282E-1,0E0,0E0,0E0,0E0,0E0,9.8465195E1,1.600027E-2,1.545639E0,6.02478E-1,0E0,0E0,5.257435E0,0E0,0E0,6.1244507E0,0E0,0E0,0E0,0E0,1.3850632E0,6.157654E0,1.1935059E1,4.0498352E-1,0E0,7.6416016E-1,0E0,1.1915982E-1,0E0,0E0,1.9387507E0,0E0,0E0,3.7954865E0,7.56546E-1,0E0,0E0,0E0,0E0,5.0994873E-2,0E0,1.1098328E0,0E0,0E0,0E0,2.425068E0,1.0967102E0,0E0,0E0,0E0,1.1629848E0,0E0,5.3691063E0,0E0,0E0,9.147949E-1,0E0,3.148079E-1,0E0,0E0,1.5447998E0,0E0,5.426425E-1,0E0,0E0,1.5558624E0,5.809368E0,2.8901367E0,3.2560577E0,0E0,0E0,0E0,0E0,0E0,0E0,9.801636E-1,0E0,0E0,0E0,0E0,0E0,5.071411E-1,0E0,4.3656955E0,1.3785706E0,0E0,2.081318E0,1.8991089E0,1.3270569E-1,0E0,6.630249E-1,0E0,0E0,4.825836E0,2.6963623E1,2.7981567E0,5.023453E0,0E0,0E0,0E0,0E0,0E0,0E0,0E0,1.2511597E0,0E0,6.511383E-1,5.164276E0,7.8838806E0,0E0,0E0,6.2296143E0,0E0,0E0,5.349365E0,0E0,0E0,0E0,1.824075E1,0E0,0E0,0E0,0E0,0E0,4.1581573E0,0E0,0E0,0E0,0E0,0E0,1.1001282E0,0E0,0E0,0E0,1.51828E0,4.636358E0,7.883282E-1,0E0,0E0,2.1989517E0,3.3447266E-2,0E0,0E0,0E0,1.6339493E0,0E0,0E0,0E0,0E0,1.2996922E0,2.686802E0,3.9649658E0,0E0,0E0,0E0,3.725586E-1,0E0,1.539154E-1,1.8194046E0,0E0,0E0,0E0,0E0,0E0,1.6224711E0,0E0,0E0,0E0,0E0,1.5713806E0,0E0,0E0,0E0,1.1263428E0,4.723282E0,3.4172058E-1,0E0,0E0,1.5867994E0,2.2392502E0,5.5319214E0,6.2464237E-2,0E0,0E0,0E0,0E0,1.1609495E1,7.598816E0,4.2120056E0,4.57666E0,0E0,1.8119917E0,3.3877563E0,3.1443555E0,4.0684204E0,0E0,0E0,0E0,0E0,0E0,0E0,0E0,0E0,0E0,9.817886E-2,0E0,8.165869E-1,2.2501266E-1,0E0,3.2117023E0,0E0,0E0,4.818039E-1,3.1410645E1,0E0,0E0,0E0,0E0,0E0,0E0,2.8021138E0,0E0,0E0,3.1241531E0,7.5570164E0,4.345398E0,0E0,3.3986893E0,0E0,0E0,0E0,0E0,0E0,4.2114716E0,3.3023415E0,1.02912445E1,0E0,0E0,0E0,0E0,0E0,5.1842957E0,4.5855904E0,5.1459045E0,0E0,1.3927734E1,1.0803223E0,9.0400213E-1,0E0,0E0,0E0,0E0,0E0,0E0,0E0,0E0,0E0,0E0,0E0,0E0,0E0,1.4270503E1,2.392344E0,0E0,0E0,0E0,1.1266937E0,0E0,0E0,1.336401E0,1.4888077E0,8.183189E0,0E0,0E0,0E0,0E0,0E0,1.5340042E0,8.683918E0,0E0,0E0,1.0502655E1,4.1653805E0,0E0,0E0,2.0751019E0,0E0,0E0,0E0,2.5888428E1,3.0550232E1,3.0375977E0,0E0,5.5283576E-1,0E0,0E0,0E0,0E0,0E0,0E0,3.7453308E0,0E0,0E0,0E0,0E0,0E0,0E0,0E0,0E0,0E0,0E0,0E0,0E0,0E0,0E0,0E0,0E0,0E0,0E0,0E0,0E0,0E0,0E0,0E0,0E0,0E0,0E0],"parents":[2147483647,0,0,1,1,2,2,3,3,4,4,5,5,6,6,7,7,8,8,9,9,10,10,11,11,12,12,13,13,14,14,15,15,16,16,18,18,19,19,20,20,21,21,22,22,23,23,24,24,25,25,26,26,27,27,28,28,29,29,30,30,31,31,32,32,33,33,34,34,35,35,36,36,37,37,38,38,39,39,40,40,41,41,42,42,43,43,44,44,45,45,46,46,49,49,50,50,51,51,52,52,57,57,58,58,59,59,60,60,61,61,62,62,63,63,64,64,65,65,66,66,71,71,75,75,76,76,77,77,78,78,80,80,81,81,82,82,83,83,84,84,85,85,86,86,87,87,89,89,90,90,91,91,92,92,93,93,94,94,95,95,96,96,97,97,98,98,99,99,100,100,101,101,102,102,103,103,104,104,105,105,106,106,108,108,109,109,110,110,113,113,114,114,117,117,119,119,120,120,122,122,123,123,127,127,130,130,132,132,133,133,134,134,137,137,143,143,147,147,148,148,150,150,151,151,152,152,153,153,154,154,155,155,157,157,158,158,163,163,164,164,165,165,167,167,168,168,169,169,171,171,173,173,174,174,175,175,176,176,177,177,179,179,180,180,181,181,182,182,183,183,184,184,185,185,186,186,187,187,188,188,191,191,194,194,205,205,212,212,213,213,217,217,218,218,222,222,223,223,225,225,227,227,229,229,230,230,231,231,232,232,233,233,234,234,235,235,236,236,237,237,238,238,239,239,240,240,241,241,242,242,243,243,244,244,246,246,249,249,250,250,251,251,253,253,254,254,255,255,256,256,260,260,261,261,262,262,263,263,264,264,265,265,266,266,267,267,268,268,269,269,271,271,273,273,274,274,275,275,276,276,278,278,279,279,292,292,294,294,295,295,297,297,298,298,304,304,305,305,306,306,307,307,310,310,313,313,318,318,319,319,320,320,321,321,323,323,325,325,328,328,331,331,332,332,337,337,339,339,343,343,344,344,348,348,350,350,353,353,355,355,358,358,360,360,363,363,364,364,365,365,366,366,373,373,379,379,381,381,382,382,384,384,385,385,386,386,388,388,391,391,392,392,393,393,394,394,402,402,404,404,405,405,406,406,409,409,412,412,416,416,422,422,428,428,432,432,433,433,434,434,437,437,438,438,442,442,447,447,448,448,449,449,453,453,455,455,456,456,462,462,467,467,471,471,472,472,473,473,476,476,477,477,478,478,479,479,484,484,485,485,486,486,487,487,489,489,490,490,491,491,492,492,502,502,504,504,505,505,507,507,510,510,511,511,518,518,521,521,522,522,523,523,525,525,531,531,532,532,533,533,539,539,540,540,541,541,543,543,544,544,545,545,559,559,560,560,564,564,567,567,568,568,569,569,575,575,576,576,579,579,580,580,583,583,587,587,588,588,589,589,591,591,598,598],"right_children":[2,4,6,8,10,12,14,16,18,20,22,24,26,28,30,32,34,-1,36,38,40,42,44,46,48,50,52,54,56,58,60,62,64,66,68,70,72,74,76,78,80,82,84,86,88,90,92,-1,-1,94,96,98,100,-1,-1,-1,-1,102,104,106,108,110,112,114,116,118,120,-1,-1,-1,-1,122,-1,-1,-1,124,126,128,130,-1,132,134,136,138,140,142,144,146,-1,148,150,152,154,156,158,160,162,164,166,168,170,172,174,176,178,180,182,-1,184,186,188,-1,-1,190,192,-1,-1,194,-1,196,198,-1,200,202,-1,-1,-1,204,-1,-1,206,-1,208,210,212,-1,-1,214,-1,-1,-1,-1,-1,216,-1,-1,-1,218,220,-1,222,224,226,228,230,232,-1,234,236,-1,-1,-1,-1,238,240,242,-1,244,246,248,-1,250,-1,252,254,256,258,260,-1,262,264,266,268,270,272,274,276,278,280,-1,-1,282,-1,-1,284,-1,-1,-1,-1,-1,-1,-1,-1,-1,-1,286,-1,-1,-1,-1,-1,-1,288,290,-1,-1,-1,292,294,-1,-1,-1,296,298,-1,300,-1,302,-1,304,306,308,310,312,314,316,318,320,322,324,326,328,330,332,334,-1,336,-1,-1,338,340,342,-1,344,346,348,350,-1,-1,-1,352,354,356,358,360,362,364,366,368,370,-1,372,-1,374,376,378,380,-1,382,384,-1,-1,-1,-1,-1,-1,-1,-1,-1,-1,-1,-1,386,-1,388,390,-1,392,394,-1,-1,-1,-1,-1,396,398,400,402,-1,-1,404,-1,-1,406,-1,-1,-1,-1,408,410,412,414,-1,416,-1,418,-1,-1,420,-1,-1,422,424,-1,-1,-1,-1,426,-1,428,-1,-1,-1,430,432,-1,-1,-1,434,-1,436,-1,-1,438,-1,440,-1,-1,442,-1,444,-1,-1,446,448,450,452,-1,-1,-1,-1,-1,-1,454,-1,-1,-1,-1,-1,456,-1,458,460,-1,462,464,466,-1,468,-1,-1,470,472,474,476,-1,-1,-1,-1,-1,-1,-1,478,-1,480,482,484,-1,-1,486,-1,-1,488,-1,-1,-1,490,-1,-1,-1,-1,-1,492,-1,-1,-1,-1,-1,494,-1,-1,-1,496,498,500,-1,-1,502,504,-1,-1,-1,506,-1,-1,-1,-1,508,510,512,-1,-1,-1,514,-1,516,518,-1,-1,-1,-1,-1,520,-1,-1,-1,-1,522,-1,-1,-1,524,526,528,-1,-1,530,532,534,536,-1,-1,-1,-1,538,540,542,544,-1,546,548,550,552,-1,-1,-1,-1,-1,-1,-1,-1,-1,554,-1,556,558,-1,560,-1,-1,562,564,-1,-1,-1,-1,-1,-1,566,-1,-1,568,570,572,-1,574,-1,-1,-1,-1,-1,576,578,580,-1,-1,-1,-1,-1,582,584,586,-1,588,590,592,-1,-1,-1,-1,-1,-1,-1,-1,-1,-1,-1,-1,-1,594,596,-1,-1,-1,598,-1,-1,600,602,604,-1,-1,-1,-1,-1,606,608,-1,-1,610,612,-1,-1,614,-1,-1,-1,616,618,620,-1,622,-1,-1,-1,-1,-1,-1,624,-1,-1,-1,-1,-1,-1,-1,-1,-1,-1,-1,-1,-1,-1,-1,-1,-1,-1,-1,-1,-1,-1,-1,-1,-1,-1],"split_conditions":[1.5E0,2.5E0,2.5E0,3.5E0,2.5E0,3.25E1,2.25E1,1.5E0,3.5E1,6.75E1,6.75E1,1.5E0,4.25E1,5E-1,1.5E0,7E0,2.5E0,4.0576112E-1,5.25E1,6.25E1,4E0,3.5E0,3.5E0,1.5E0,6E0,5.5E0,3.5E0,1.5E0,5E0,1.5E0,5E-1,7.25E1,1.5E0,1.5E0,2.5E0,4.75E1,3E0,4E1,1.5E0,7.25E1,7.25E1,7E0,4.5E0,1.5E0,4.5E0,5E-1,2.5E0,5.894921E-1,1.6531199E-1,3.5E0,7.5E0,2.5E0,1.5E0,4.2195853E-2,8.1622034E-1,8.829367E-2,4.255899E-2,7E0,5E-1,6.25E1,3.25E1,4E0,3E0,4E1,4.5E1,5E-1,7.25E1,3.9563227E-1,2.470884E-1,5.0236386E-1,1.542912E0,1.5E0,7.371081E-1,-0E0,5.215293E-1,1.5E0,3E0,1.5E0,1.5E0,1.7063145E-1,7.75E1,1.5E0,6E1,3.75E1,5.75E1,2.5E0,2.5E0,3.5E0,4.4366488E-1,4.5E0,1.5E0,5E0,5E-1,2.5E0,3.75E1,5E-1,1.5E0,8.65E1,3.5E0,1.5E0,5E-1,3.75E1,5E-1,3.5E0,6.65E1,1.5E0,2.5E0,1.0647188E-1,2.5E0,5.75E1,5.25E1,4.9134082E-1,2.1187988E-1,1.5E0,6E1,1.9043036E-1,4.512857E-1,5E1,8.685925E-2,1.5E0,1.5E0,6.327015E-1,1.5E0,1.5E0,3.2956174E-1,6.5889704E-1,2.5621992E-1,2.5E0,2.88E-1,6.457918E-1,7.75E1,6.033407E-1,5.5E0,6.25E1,6E1,1.2523842E0,3.2454303E-1,1.5E0,-2.0788084E-1,5.1708055E-1,2.0107159E-1,4.134219E-1,4.939181E-2,1.5E0,3.5318586E-1,2.2374211E-1,4.4366488E-1,1.5E0,4.5E0,9.6137524E-1,2.25E1,1.5E0,2.5E0,5E-1,2.5E0,1.5E0,2.9761124E-1,1.5E0,1.5E0,4.28397E-1,2.7281564E-1,5.4000016E-2,2.484344E-1,2.5E0,2.5E0,5E1,4.869535E-2,1.5E0,6.25E1,2.5E0,6.3058627E-1,5.5E0,2.4784636E-1,1.5E0,1.5E0,5E-1,5E-1,5E-1,1.3443444E0,5.5E0,6.5E0,2.5E0,7.5E0,4.5E0,4E0,1.5E0,1.5E0,2E1,5.5E0,1.71544E0,4.8759544E-1,8.5E0,2.025941E-1,4.3061903E-1,5.75E1,7.681445E-2,1.84236E-1,6.1478704E-1,2.9108042E-1,1.515883E-1,5.8038104E-1,4.6137816E-1,5.9420604E-2,4.3871772E-1,7.170715E-1,2.5E0,-0E0,-0E0,3.4259847E-1,4.6117067E-1,6.429204E-1,-1.5013249E-1,3.5E0,5E-1,1.8704131E-1,1.4132096E-1,3.3231577E-1,1.5E0,2.25E1,9.281881E-1,-0E0,-0E0,3.5E0,2.5E0,7.59755E-2,5E0,-0E0,4E0,2.3542084E-1,2.75E1,3.5E0,5.5E0,2.5E0,2E0,2.5E0,4.5E0,3.5E0,4.75E1,4.5E0,5E-1,1.5E0,2.5E0,7.65E1,2.5E0,4E0,2.0553714E-1,1.5E0,1.2544732E0,-0E0,5E-1,5E-1,2.75E1,4.067074E-1,3.25E1,6.5E0,2.5E0,2.75E1,1.2084211E0,5.0012386E-1,1.2466087E0,1.5E0,5E0,4E1,3E1,3.25E1,6.75E1,3.5E0,6.75E1,8.5E0,3.5E0,2.9410836E-1,2.5E0,1.2739358E0,3.5E0,5E1,1.5E0,4.5E0,5.9141684E-1,3E1,1.5E0,3.7729874E-1,6.65676E-1,5.510399E-2,2.0658147E-1,3.7969843E-1,3.0266887E-1,4.65374E-1,4.244058E-1,-0E0,6.545251E-2,-5.3410627E-2,2.0345996E-1,3.5E0,5.790852E-1,1.5E0,3.5E0,3.397873E-2,5E-1,3.5E0,3.9039686E-1,-0E0,1.0433888E-1,4.815962E-1,3.668874E-1,3.5E0,2.75E1,3.5E0,1.5E0,-0E0,2.7937067E-1,1.5E0,4.3424582E-1,5.6513216E-2,4.5E0,2.2493038E-2,1.1382315E0,2.7443314E-1,2.0984122E-1,5E-1,7.5E0,1.5E0,1.5E0,2.183427E-1,1.5E0,8.161302E-2,5E-1,4.1644284E-1,2.6038653E-1,3.5E0,4.204197E-1,2.3965417E-1,5.25E1,9.85E1,4.2770058E-1,2.1623762E-1,1.0924222E0,3.1449378E-1,1.5E0,1.6921447E-1,5E-1,4.9111122E-1,4.7276625E-1,1.026727E0,3E0,3E0,4.698013E-1,1.4476544E-1,5.1552224E-1,7E0,6.2952894E-1,6.4E1,1.6608799E-2,6.5524274E-1,2.5E0,4.1706927E-2,7.5E0,3.006918E-2,7.669198E-2,3.75E1,3.879204E-1,4E1,1.1502423E-1,9.5858675E-1,1.5E0,6.75E1,5.5E0,4E0,1.157833E0,2.7552003E-1,5.5545366E-1,1.0055352E0,7.16352E-1,2.026716E-1,1.5E0,-0E0,4.7299168E-1,9.08676E-1,5.3395104E-1,3.9702863E-2,1.5E0,6.080148E-1,5E0,1.5E0,2.825628E-1,6.75E1,2.5E0,4.5E0,2.7341107E-1,4.5E0,5.6332505E-1,3.397873E-2,1.5E0,5E-1,1.5E0,1.5E0,7.391951E-2,2.2778883E0,5.4782864E-2,2.4738297E-1,3.4335396E-1,6.5611386E-1,8.81664E-1,5E-1,1.0924222E0,2.5E0,3.5E0,5E-1,4.0042678E-1,7.4982786E-1,5E-1,1.0924222E0,-0E0,1.5E0,3.7304017E-1,1.8438376E-1,3.931296E-1,5E-1,4.4602722E-2,1.7745313E-1,7.420922E-2,4.689671E-1,1.267392E0,6E1,4.7813946E-1,8.612277E-2,4.836308E-1,1.55052E-1,4.0743747E-1,2.75E1,2.516826E-1,-0E0,6.70452E-2,4.5E0,5.5E0,3E1,2.1641028E-1,5.6927794E-1,5E-1,2.5E0,2.910889E-1,5.698163E-1,6.331517E-1,4.25E1,-0E0,1.5738976E-1,2.0597422E-1,3.652988E-1,7E0,4E0,5.5E0,1.8704133E-1,6.881118E-2,3.8779062E-1,5E-1,3.481659E-1,2.5E0,6.75E1,-2.5519085E-1,4.2088553E-1,1.6097979E-1,2.8228426E-1,7.356003E-1,2.5E0,3.524731E-1,1.0420989E-1,4.601436E-1,-0E0,3.5E0,8.054325E-2,2.7404267E-1,4.7996947E-1,2.75E1,5E-1,2.75E1,7.1570647E-1,4.034298E-1,5E-1,2.5E0,4E0,5E-1,4.3560275E-1,8.631531E-1,-0E0,7.091551E-1,3.5E0,3.5E0,1.5E0,6.25E1,6.080034E-1,5E0,9.85E1,1.5E0,5E-1,1.0106683E0,5.8724576E-1,6.1355084E-1,3.9185467E-1,-0E0,5.491722E-1,4.1393113E-1,1.7063823E-1,4.4899884E-1,2.75E1,3.235781E-1,4.5E0,2.5E0,4.8316655E-1,1.5E0,-0E0,1.3491556E-2,2E0,4E0,3.9839298E-1,4.4880503E-1,2.6907784E-1,2.9714513E-1,3.912124E-1,4.2045194E-1,2.5E0,-6.7996144E-2,3.1933847E-1,2.5E0,4E0,1.5E0,1.1396326E0,2.75E1,5.217824E-1,4.431122E-1,2.960414E-1,-2.5456014E-1,9.2613205E-2,3.75E1,1.5E0,3.75E1,1.2581875E0,9.469602E-2,3.2597136E-1,1.7514484E-1,7.7136374E-1,1.5E0,1.5E0,2.5E0,6.2946814E-1,3.5E0,4.5E0,2.5E0,2.999023E-1,5.487443E-1,2.940349E-1,-0E0,5.958667E-1,7.198111E-1,-0E0,2.2566572E-3,3.0177143E-1,-0E0,2.3025979E-1,1.7813273E-1,-0E0,1.5E0,1.5E0,8.115039E-1,4.2331293E-1,1.2756534E0,7E0,4.5600513E-1,-0E0,2.75E1,2.75E1,5E-1,1.4958589E-1,9.049913E-1,5.9475845E-1,2.834412E-1,5.1899415E-1,4E0,1.5E0,-0E0,3.3233768E-1,2.5E0,1.5E0,3.9223468E-1,5.3314228E-2,2.5E0,3.9003852E-1,1.6184606E-1,4.380757E-1,5.75E1,5.75E1,2.5E0,4.798146E-1,1.5E0,1.4740476E-1,1.2735968E0,7.399035E-2,-2.9683989E-2,2.2991508E-1,4.1056114E-1,4.5E0,1.2076005E-1,2.765444E-1,2.6525614E-1,-0E0,1.7131722E-1,1.0345627E0,3.3633825E-1,7.032391E-1,1.9950956E-1,1.2889153E0,6.218576E-1,-0E0,3.6059654E-1,-0E0,1.4322957E-1,3.771201E-1,4.738794E-1,3.107091E-1,3.7154302E-1,6.075003E-1,4.7480512E-1,3.9682558E-1,-6.1964314E-2,9.347941E-2,4.591994E-1,7.1373606E-1],"split_indices":[0,6,5,4,2,3,3,4,3,3,3,4,3,8,6,5,4,0,3,3,5,6,2,1,4,2,6,2,6,4,7,3,1,6,2,3,2,3,4,3,3,5,2,5,2,7,2,0,0,2,2,1,1,0,0,0,0,5,7,3,3,5,2,3,3,7,3,0,0,0,0,5,0,0,0,5,5,5,2,0,3,5,3,3,3,4,5,5,0,6,2,9,7,4,3,7,1,3,1,4,8,3,8,2,3,4,2,0,1,3,3,0,0,6,3,0,0,3,0,5,5,0,6,2,0,0,0,4,0,0,3,0,5,3,3,0,0,1,0,0,0,0,0,4,0,0,0,6,2,0,3,5,1,8,6,1,0,6,6,0,0,0,0,4,6,3,0,5,3,2,0,5,0,1,1,8,8,8,0,2,2,6,2,2,2,6,6,3,5,0,0,5,0,0,3,0,0,0,0,0,0,0,0,0,0,5,0,0,0,0,0,0,2,8,0,0,0,2,3,0,0,0,2,1,0,8,0,2,0,3,2,6,1,4,1,2,6,3,2,7,5,2,3,2,2,0,2,0,0,7,9,3,0,3,2,4,3,0,0,0,1,8,3,3,3,3,6,3,2,6,0,2,0,2,3,1,7,0,3,6,0,0,0,0,0,0,0,0,0,0,0,0,2,0,2,6,0,8,6,0,0,0,0,0,2,3,6,2,0,0,6,0,0,2,0,0,0,0,8,2,2,5,0,2,0,8,0,0,2,0,0,3,3,0,0,0,0,1,0,8,0,0,0,2,2,0,0,0,5,0,3,0,0,2,0,2,0,0,3,0,3,0,0,4,3,4,5,0,0,0,0,0,0,5,0,0,0,0,0,5,0,2,1,0,3,2,9,0,9,0,0,2,7,6,2,0,0,0,0,0,0,0,8,0,2,6,8,0,0,8,0,0,4,0,0,0,8,0,0,0,0,0,3,0,0,0,0,0,3,0,0,0,2,4,3,0,0,8,1,0,0,0,3,0,0,0,0,5,5,2,0,0,0,8,0,2,3,0,0,0,0,0,2,0,0,0,0,6,0,0,0,3,9,3,0,0,7,2,6,7,0,0,0,0,6,2,4,3,0,2,3,2,8,0,0,0,0,0,0,0,0,0,3,0,2,2,0,2,0,0,4,5,0,0,0,0,0,0,2,0,0,2,2,2,0,3,0,0,0,0,0,3,6,3,0,0,0,0,0,1,5,2,0,2,2,4,0,0,0,0,0,0,0,0,0,0,0,0,0,4,4,0,0,0,5,0,0,3,3,8,0,0,0,0,0,0,6,0,0,6,5,0,0,6,0,0,0,3,3,6,0,1,0,0,0,0,0,0,2,0,0,0,0,0,0,0,0,0,0,0,0,0,0,0,0,0,0,0,0,0,0,0,0,0,0],"split_type":[0,0,0,0,0,0,0,0,0,0,0,0,0,0,0,0,0,0,0,0,0,0,0,0,0,0,0,0,0,0,0,0,0,0,0,0,0,0,0,0,0,0,0,0,0,0,0,0,0,0,0,0,0,0,0,0,0,0,0,0,0,0,0,0,0,0,0,0,0,0,0,0,0,0,0,0,0,0,0,0,0,0,0,0,0,0,0,0,0,0,0,0,0,0,0,0,0,0,0,0,0,0,0,0,0,0,0,0,0,0,0,0,0,0,0,0,0,0,0,0,0,0,0,0,0,0,0,0,0,0,0,0,0,0,0,0,0,0,0,0,0,0,0,0,0,0,0,0,0,0,0,0,0,0,0,0,0,0,0,0,0,0,0,0,0,0,0,0,0,0,0,0,0,0,0,0,0,0,0,0,0,0,0,0,0,0,0,0,0,0,0,0,0,0,0,0,0,0,0,0,0,0,0,0,0,0,0,0,0,0,0,0,0,0,0,0,0,0,0,0,0,0,0,0,0,0,0,0,0,0,0,0,0,0,0,0,0,0,0,0,0,0,0,0,0,0,0,0,0,0,0,0,0,0,0,0,0,0,0,0,0,0,0,0,0,0,0,0,0,0,0,0,0,0,0,0,0,0,0,0,0,0,0,0,0,0,0,0,0,0,0,0,0,0,0,0,0,0,0,0,0,0,0,0,0,0,0,0,0,0,0,0,0,0,0,0,0,0,0,0,0,0,0,0,0,0,0,0,0,0,0,0,0,0,0,0,0,0,0,0,0,0,0,0,0,0,0,0,0,0,0,0,0,0,0,0,0,0,0,0,0,0,0,0,0,0,0,0,0,0,0,0,0,0,0,0,0,0,0,0,0,0,0,0,0,0,0,0,0,0,0,0,0,0,0,0,0,0,0,0,0,0,0,0,0,0,0,0,0,0,0,0,0,0,0,0,0,0,0,0,0,0,0,0,0,0,0,0,0,0,0,0,0,0,0,0,0,0,0,0,0,0,0,0,0,0,0,0,0,0,0,0,0,0,0,0,0,0,0,0,0,0,0,0,0,0,0,0,0,0,0,0,0,0,0,0,0,0,0,0,0,0,0,0,0,0,0,0,0,0,0,0,0,0,0,0,0,0,0,0,0,0,0,0,0,0,0,0,0,0,0,0,0,0,0,0,0,0,0,0,0,0,0,0,0,0,0,0,0,0,0,0,0,0,0,0,0,0,0,0,0,0,0,0,0,0,0,0,0,0,0,0,0,0,0,0,0,0,0,0,0,0,0,0,0,0,0,0,0,0,0,0,0,0,0,0,0,0,0,0,0,0,0,0,0,0,0,0,0,0,0,0,0,0,0,0,0,0,0,0,0,0,0,0,0,0,0,0,0,0,0,0,0,0,0,0,0,0,0,0,0,0,0,0,0],"sum_hessian":[2.913E4,1.385E4,1.528E4,2.748E3,1.1102E4,9.072E3,6.208E3,2.541E3,2.07E2,1.0159E4,9.43E2,2.728E3,6.344E3,2.1E2,5.998E3,2.03E3,5.11E2,5E1,1.57E2,8.973E3,1.186E3,6.02E2,3.41E2,2.637E3,9.1E1,9.79E2,5.365E3,5E0,2.05E2,1.381E3,4.617E3,1.853E3,1.77E2,2.9E2,2.21E2,7E0,1.5E2,6.5E1,8.908E3,7.62E2,4.24E2,5.66E2,3.6E1,1.7E2,1.71E2,1.375E3,1.262E3,8.7E1,4E0,8.27E2,1.52E2,5.045E3,3.2E2,2E0,3E0,1.03E2,1.02E2,1.177E3,2.04E2,4.549E3,6.8E1,1.627E3,2.26E2,8.9E1,8.8E1,9.9E1,1.91E2,1.66E2,5.5E1,3E0,4E0,3.3E1,1.17E2,2E0,6.3E1,8.878E3,3E1,2.26E2,5.36E2,4.05E2,1.9E1,5.59E2,7E0,1.5E1,2.1E1,1.06E2,6.4E1,1.64E2,7E0,1.349E3,2.6E1,5.5E2,7.12E2,3.56E2,4.71E2,1.09E2,4.3E1,4.779E3,2.66E2,2.74E2,4.6E1,3.04E2,8.73E2,1.75E2,2.9E1,4.024E3,5.25E2,3E0,6.5E1,1.384E3,2.43E2,2.1E2,1.6E1,1.1E1,7.8E1,1.3E1,7.5E1,9.1E1,8E0,1.67E2,2.4E1,6E0,2.7E1,8.853E3,2.5E1,2E1,1E1,1.86E2,4E1,6E0,5.3E2,3E0,1.6E1,1.95E2,3.64E2,3E0,4E0,1.3E1,2E0,1.1E1,1E1,1.02E2,4E0,4.2E1,2.2E1,1.57E2,7E0,1.322E3,2.7E1,1.1E1,1.5E1,5.31E2,1.9E1,1.66E2,5.46E2,3.24E2,3.2E1,3.45E2,1.26E2,5.7E1,5.2E1,4E1,3E0,3.748E3,1.031E3,2.39E2,2.7E1,1.76E2,9.8E1,2.6E1,2E1,2.82E2,2.2E1,1.4E2,7.33E2,1.57E2,1.8E1,2.5E1,4E0,3.868E3,1.56E2,2.05E2,3.2E2,4.5E1,2E1,8.86E2,4.98E2,1.34E2,1.09E2,5E0,6E0,6.7E1,1.1E1,3.1E1,6E1,1.54E2,1.3E1,6E0,1.8E1,2.3E1,4E0,3E0,8.85E3,1.76E2,1E1,5.23E2,7E0,6E0,1E1,1.45E2,5E1,6E0,3.58E2,3E0,1E1,3.3E1,9E0,8.69E2,4.53E2,1.7E1,1E1,2E0,1.3E1,5.25E2,6E0,5E0,1.4E1,2.5E1,1.41E2,1.82E2,3.64E2,2.22E2,1.02E2,1.36E2,2.09E2,7.3E1,5.3E1,3.503E3,2.45E2,9.5E2,8.1E1,1.02E2,1.37E2,1.34E2,4.2E1,8.7E1,1.1E1,2.5E1,1E0,1.45E2,1.37E2,4.8E1,9.2E1,4.68E2,2.65E2,7.3E1,8.4E1,2E0,1.6E1,5E0,2E1,3.771E3,9.7E1,1.25E2,3.1E1,1.7E1,1.88E2,3.11E2,9E0,2.6E1,1.9E1,1.2E1,8E0,6.25E2,2.61E2,6.1E1,4.37E2,4E0,1.3E2,2.7E1,8.2E1,6.3E1,4E0,3.7E1,2.3E1,5.08E2,1.5E1,3.55E2,3E0,2E0,1E0,9.5E1,7.74E2,2.3E1,4.3E2,1E1,3E0,4.15E2,1.1E2,3E0,2E0,9E0,1.6E1,1.68E2,1.4E1,2.5E1,3.39E2,2.21E2,1E0,4.7E1,5.5E1,1.33E2,3E0,2.04E2,5E0,6.1E1,1.2E1,2.1E1,3.2E1,6.84E2,2.819E3,2.01E2,4.4E1,9.37E2,1.3E1,8E1,1E0,6.6E1,3.6E1,1.03E2,3.4E1,7.9E1,5.5E1,2.7E1,1.5E1,2E0,9E0,1.32E2,1.3E1,4.1E1,9.6E1,3.6E1,1.2E1,1.28E2,3.4E2,2.57E2,8E0,3E1,4.3E1,4.1E1,4.3E1,5E0,1.5E1,3.765E3,6E0,4.1E1,5.6E1,6E0,1.19E2,1.8E1,1.3E1,7E0,1E1,1.2E2,6.8E1,2.41E2,7E1,5E0,4E0,1.8E1,8E0,4E0,8E0,6.24E2,1E0,2.41E2,2E1,5.9E1,2E0,4.29E2,8E0,6E0,1.24E2,1E1,1.7E1,6.9E2,8.4E1,1.53E2,2.77E2,7E0,3E0,1.26E2,2.89E2,9.8E1,1.2E1,9E0,5E0,7E0,1.8E1,3.33E2,6E0,4E0,2.17E2,2E0,5.3E1,8.5E1,1.19E2,1.8E1,1.4E1,6.82E2,2E0,9E0,2.81E3,1.87E2,1.4E1,8.39E2,9.8E1,7.7E1,3E0,3.4E1,2E0,4E0,7.5E1,5.1E1,4E0,1.27E2,5E0,1E1,3.1E1,1.24E2,4E0,5E0,3.35E2,1.3E1,3E1,2.1E1,2.2E1,1.38E2,3.627E3,3.5E1,6E0,5.5E1,6.4E1,3E0,1E1,9.5E1,2.5E1,4.1E1,2.7E1,2.31E2,1E1,1E1,6E1,5.35E2,8.9E1,3.45E2,8.4E1,5E0,1E0,7E1,5.4E1,1.4E1,3E0,6.79E2,1.1E1,8.3E1,1E0,2.58E2,1.9E1,5E1,7.6E1,9.7E1,1.92E2,9E1,8E0,7E0,5E0,8.4E1,1.33E2,1.5E1,3.8E1,8.3E1,2E0,9E1,2.9E1,4.53E2,2.29E2,2.753E3,5.7E1,3.2E1,6.6E1,8E0,6.7E1,1.3E1,1.8E1,1.5E1,3.2E2,1.1E1,2E0,1.5E1,1.5E1,7.7E1,6.1E1,3.619E3,8E0,8E0,5.6E1,3.8E1,3E0,3E0,2.4E1,1.62E2,6.9E1,5.16E2,1.9E1,2.96E2,4.9E1,7.5E1,9E0,1E0,2E0,2.26E2,3.2E1,9.1E1,6E0,8.9E1,1.03E2,4.1E1,4.9E1,3E0,2E0,6E1,2.4E1,1.31E2,2E0,1E1,5E0,2E1,9E0,3.38E2,1.15E2,1.98E2,3.1E1,1.49E3,1.263E3,2.9E1,3E0,3.3E1,3.3E1,6E0,2E0,6.5E1,2E0,3E0,5.8E1,4E0,4E0,7E0,1E0,8E0,3E1,8E0,1.6E1,1E1,1.52E2,2E0,7E0,1.35E2,9.1E1,1E1,2.2E1,2.4E1,6.7E1,6.6E1,2.3E1,5.3E1,7E0,7E0,1.7E1,9.1E1,4E1,3.27E2,1.1E1,8.4E1,3.1E1,1.9E1,1.79E2,1.017E3,4.73E2,1.082E3,1.81E2,2.4E1,5E0,2E0,6E0,4E0,2.6E1,6.1E1,9.1E1,1.19E2,1.6E1,9E1,1E0,6E0,4E0,4.8E1,5E0,4E0,3E0,8.7E1,4E0,3.3E1,7E0,7.4E1,1E1,7.77E2,2.4E2,1.56E2,3.17E2,2.06E2,8.76E2,2.2E1,2E0,5.8E1,3.3E1],"tree_param":{"num_deleted":"0","num_feature":"10","num_nodes":"625","size_leaf_vector":"0"}},{"base_weights":[4.250942E-1,2.586749E-1,5.758467E-1,6.10958E-1,1.7133947E-1,6.199872E-1,5.4106444E-1,5.834971E-1,9.388171E-1,1.3308689E-1,5.818002E-1,5.891097E-1,7.01913E-1,6.0367554E-1,4.91966E-1,6.277629E-1,4.0481085E-1,5.9185624E-1,1.0385398E0,9.472932E-2,4.2212456E-1,6.5126634E-1,4.546953E-1,3.4366047E-1,6.0049003E-1,7.33877E-1,4.410176E-1,4.7679073E-1,6.5939754E-1,1.2004991E-1,5.0058305E-1,6.073902E-1,8.308141E-1,5.572701E-1,3.1154042E-1,2.1297965E0,9.672246E-1,7.205017E-1,8.997057E-2,5.0767887E-1,2.651833E-1,6.397401E-1,1.2298044E0,5.281187E-1,3.7324125E-1,5.948687E-1,2.2074984E-1,5.8563757E-1,7.268359E-1,7.0170337E-1,1.0000442E0,3.5164666E-1,1.0587049E0,1.1183255E0,4.5542422E-1,6.4187765E-1,1.1974761E0,5.650004E-1,6.165665E-2,4.927881E-1,8.880086E-1,5.340351E-1,6.222098E-1,1.0227942E0,6.1610603E-1,5.371705E-1,1.2910556E0,1.9788894E-1,5.937244E-1,1.0386208E0,3.9764845E-1,-0E0,7.586424E-1,8.724691E-2,8.349173E-1,6.322956E-1,4.521934E-1,2.4680755E-1,6.114127E-1,7.0830476E-1,5.9465694E-1,1.5151123E0,-2.6329398E-2,5.896766E-1,4.032755E-1,3.4937137E-1,6.9390255E-1,4.3324083E-1,1.421312E0,4.0428558E-1,1.19008765E-1,5.796175E-1,7.852739E-1,7.02559E-1,1.531757E0,7.278248E-1,4.3407562E-1,5.3904665E-1,1.3183277E0,4.6550402E-1,7.624893E-2,1.3993288E0,2.24406E-1,3.6774278E-1,5.307654E-1,6.595972E-1,1.8196253E-1,8.4403884E-1,1.6852487E0,4.884241E-1,1.090224E0,-0E0,9.150691E-1,6.526273E-1,3.9116544E-1,6.612679E-1,5.8396375E-1,1.9105023E0,8.623475E-1,2.8763613E-1,6.553491E-1,5.4882175E-1,1.3464363E-1,1.2245019E-1,3.6311185E-1,1.372922E-1,9.512588E-1,8.518506E-1,3.9201662E-1,8.595046E-2,4.8692283E-1,9.0954214E-1,6.4959526E-2,6.0121346E-1,1.0970715E0,1.0215662E0,4.4195274E-1,2.3714599E-1,5.0762284E-1,1.490664E-1,7.404214E-1,2.2050467E-1,6.09055E-1,2.1153073E0,5.319339E-1,3.2338643E-1,6.9390255E-1,2.369257E-1,7.7384055E-1,5.53948E-1,6.1755115E-1,8.080221E-1,-0E0,9.130029E-1,6.0343E-1,7.9550207E-1,2.2034135E0,7.7229965E-1,5.8179444E-1,3.3929032E-1,6.973131E-1,3.8463494E-1,7.3224235E-1,3.6575851E0,1.1424795E0,-0E0,5.065973E-1,2.6895704E-2,3.2460207E-1,2.649635E-1,4.3451387E-1,5.418529E-1,-0E0,6.4613503E-1,1.2787805E0,8.9504614E-2,5.529702E-1,3.8607603E-1,1.0240791E0,1.8702787E0,-0E0,4.6442816E-1,5.452777E-1,9.840926E-1,4.1837013E-1,7.5319946E-1,2.1560693E-1,6.88422E-1,3.5061592E-1,5.220689E-1,6.7934924E-1,2.7544668E0,7.7131826E-1,9.327118E-1,3.084207E-1,-0E0,2.1062052E-1,8.7023795E-1,-1.8650983E-2,7.7927893E-1,8.551443E-2,4.4690248E-1,-0E0,1.019057E0,-0E0,-0E0,2.8616074E-1,6.657004E-1,9.377843E-1,-1.14703745E-1,6.0014176E-1,6.1359954E-1,-0E0,8.158543E-1,-0E0,5.1744777E-1,6.514349E-1,6.7065215E-1,5.661911E-1,8.490461E-1,1.6740118E0,5.278922E-1,7.316257E-1,1.7346681E0,2.6668668E-2,1.119089E0,6.9429916E-1,5.366071E-1,1.1178697E0,3.7842092E-1,-0E0,1.3570225E0,7.196076E-1,2.0233138E-1,3.4734562E-1,4.8282474E-1,7.902438E-2,7.255033E-1,5.04148E-1,1.102326E0,6.324003E-1,1.743931E0,9.928631E-1,1.2124414E-1,-0E0,-0E0,5.893328E-1,1.5513185E-1,8.478617E-1,2.528545E0,4.6270362E-1,6.4469045E-1,4.8436308E-1,3.1416836E-1,1.0463269E0,8.1771463E-1,3.4598246E-1,-7.487057E-2,5.657995E-1,6.292604E-1,7.713059E-1,-0E0,4.1077405E-1,5.099279E-1,2.7355795E0,4.4262418E-1,7.239428E-1,9.6832526E-1,9.031677E-2,-1.7198676E-1,-0E0,-0E0,-1.035645E-1,6.8939245E-1,3.0133975E-1,-2.3749182E-1,-0E0,5.3574693E-1,3.3761927E-1,7.9130757E-1,6.044001E-1,6.520129E-1,2.805994E0,3.7729812E-1,9.043996E-1,2.0854454E0,-0E0,3.6870798E-1,5.683247E-1,1.2388713E0,6.0527956E-1,6.280524E-1,1.2503233E0,6.367345E-1,3.301223E-1,1.1875639E0,-0E0,8.381872E-1,1.7840908E-1,3.7175158E-1,-0E0,3.7156475E-1,6.1232436E-1,4.5648396E-1,1.0860325E0,5.217747E-1,3.3738863E-1,-0E0,1.195892E0,6.4442337E-1,2.9392636E-1,8.826589E-1,2.5823298E0,1.1933217E0,5.498279E-1,3.3069095E-1,4.7546247E-1,7.510139E-1,4.2351964E-1,5.223283E-1,2.4524558E-1,-4.0975764E-1,2.5717786E-3,1.2464912E0,1.3118793E-1,6.7509085E-1,4.6906444E-1,6.8260103E-1,1.5007606E0,-0E0,4.0566284E-2,2.6238292E-1,5.374807E-1,6.399997E-1,4.7656178E-1,3.12651E-1,1.2636343E0,7.6697546E-1,4.6253392E-1,1.16005264E-1,-2.6329398E-2,1.6735612E-1,5.4429656E-1,7.837667E-2,5.017405E-1,8.475057E-1,3.6247796E-1,6.162053E-1,1.9718248E-1,6.7712647E-1,4.2486018E-1,9.160952E-1,-0E0,4.9596024E-1,1.7107112E0,1.016983E0,5.3225553E-1,6.9521356E-1,5.433576E-1,1.604544E0,-0E0,2.0802057E-1,6.0967606E-1,3.772987E-1,-0E0,9.027252E-1,3.3732787E-1,3.208716E-1,7.390996E-1,1.2716076E0,4.4089076E-1,4.029274E-2,1.2178042E0,6.7254615E-1,4.8707554E-1,3.1188372E-1,-0E0,-0E0,6.471662E-1,1.9473651E-1,6.23833E-1,9.0134066E-1,6.270749E-1,3.4843284E-1,6.3008654E-1,7.50392E-1,4.789906E-1,-2.9710964E-3,5.512644E-1,6.78931E-1,-0E0,3.659028E-1,6.479653E-1,-0E0,-2.1957529E-1,7.363405E-1,4.1805705E-1,4.6209738E-1,9.425053E-1,4.0345222E-1,-0E0,1.1166047E0,7.123621E-1,5.580154E-2,5.7647574E-1,5.993396E-1,5.118739E-1,1.5277745E-1,-2.4631843E-2,6.341255E-1,3.1324708E-1,8.680315E-1,-0E0,5.6417614E-1,7.8334254E-1,7.290498E-1,4.593079E-1,6.376824E-1,4.6326425E-2,9.3374896E-1,1.3037014E-1,1.2995164E-1,9.733297E-1,1.175294E0,3.0324416E0,6.55328E-1,1.6823778E0,2.6037794E-1,5.571916E-1,1.6301851E0,1.8935232E-1,1.4902695E-1,-3.0963877E-1,6.3777596E-1,-0E0,3.8655573E-1,1.0921695E0,1.4421402E-1,9.590844E-1,1.3385043E0,-0E0,6.9157034E-1,4.1774485E-1,4.4457301E-1,8.358613E-1,2.4499516E-1,4.9046445E-1,4.2558703E-1,-1.1442209E-1,4.7537586E-1,1.569396E0,1.1623183E0,5.56196E-1,3.8634136E-1,7.6542705E-1,2.5411835E-1,5.0212854E-1,3.9744467E-1,9.2458224E-1,4.535917E-1,8.821173E-1,1.5497394E-1,-6.350429E-2,9.1742E-1,3.5686666E-1,1.1956791E0,6.612771E-1,1.0090266E0,3.8036343E-1,-0E0,1.2492279E0,4.3311366E-1,7.6982766E-1,-0E0,1.9828758E-1,7.7850616E-1,3.173639E-1,6.432723E-1,4.708281E-1,4.863299E-1,6.691051E-1,-9.1862306E-2,1.6567898E-1,8.527052E-1,4.3177146E-1,7.59625E-1,1.089889E0,5.7741404E-1,-3.388572E-1,1.3964584E0,6.078036E-1,8.667E-1,6.834153E-1,5.9332746E-1,-0E0,1.1514535E0,4.9537277E-1,1.1714009E0,8.056044E-1,-0E0,2.3668645E-1,2.7095038E-1,1.5663648E0,5.53331E-1,7.121788E-1,3.039556E-1,3.9027467E0,1.6563016E0,2.1371646E-1,1.1447413E0,-0E0,2.0236021E-1,-0E0,1.0599146E0,-0E0,6.359262E-1,7.758594E-1,1.0885471E-1,4.5808432E-1,4.3060791E-1,8.526694E-1,2.1697483E0,5.523515E-1,5.5239743E-1,-0E0,6.3405865E-1,3.4437764E-1,6.228183E-1,-1.00035116E-1,2.380249E0,3.3031037E-1,8.888863E-1,2.4262462E0,5.006633E-1,2.5165117E-1,8.526874E-1,4.0594113E-1,5.834723E-1,9.85029E-3,1.7743424E-1,5.7864386E-1,1.2413231E0,4.1699222E-1,1.0412899E0,4.4599295E-1,-9.299223E-2,1.6316613E-2,1.351368E0,1.2794349E-1,7.585242E-1,1.708108E0,6.496676E-1,5.5233478E-3,-0E0,7.7629817E-1,5.5209213E-1,7.985113E-1,4.802509E-1,1.1291847E0,9.1451776E-1,5.3625894E-1,8.845625E-1,5.3190553E-1,4.2360887E-1,6.7630947E-1,1.0534614E0,2.8842857E0,-0E0,6.9932616E-1,5.0219125E-1,9.9281E-1,2.5270528E-1,-3.4502608E-1,1.4487861E-1,5.647864E-1,-0E0,8.3348155E-1,5.596166E-1,-0E0,6.722443E-1,9.548172E-1,1.4817168E0,6.9488466E-1,-0E0,1.1871476E0,7.8219765E-1,5.445486E-1,9.036288E-1,6.003291E-1,1.7593752E-1,-0E0,5.2818394E-1,3.0545804E-1,9.265395E-1,2.7600926E-1,2.6548463E-1,6.9353265E-1,3.8820982E-3,7.029331E-1,-5.3592837E-1,1.15093686E-1,-0E0,9.068311E-1,-0E0,5.5118483E-1,3.2754493E-1,-0E0,-0E0,3.4122786E-1,2.2510149E-1,-0E0,1.8655901E0,9.842325E-1,4.7581357E-1,-0E0,2.018928E0,8.015871E-2,4.9574322E-1,-4.8269126E-1,3.3199254E-1,6.4266044E-1,8.3146673E-1,1.6058011E-1,4.8951772E-1,2.6544675E-1,6.20703E-1,1.0400558E0,6.4540946E-1,9.340367E-2,6.930996E-1,3.262177E-1,1.4617803E0,5.7610047E-1,-0E0,1.4665741E0,3.7640855E-1,-0E0,-5.072693E-1,8.562231E-2,6.958485E-1,-0E0,2.7463946E0,1.1125549E0,9.568015E-1,5.3632396E-1,-1.005653E-1,5.768614E-1,6.321977E-1,9.461312E-1,6.658322E-1,4.3073404E-1,1.2902085E-1,-1.8160135E-2,-0E0,2.922837E-1,-9.7253226E-2,1.4175105E-2,2.1748793E0,8.562231E-2,-0E0,1.01733E0],"categories":[],"categories_nodes":[],"categories_segments":[],"categories_sizes":[],"default_left":[1,1,1,1,1,1,1,1,1,1,1,1,1,1,1,1,1,0,1,1,1,1,1,1,1,1,1,1,1,1,1,1,1,1,1,0,1,1,1,1,1,1,1,1,1,1,1,1,1,1,1,1,1,0,1,1,1,0,0,1,1,1,1,1,1,1,0,1,0,0,1,0,1,1,1,1,1,1,0,1,1,1,0,0,0,1,0,1,0,0,0,1,1,1,1,1,1,1,1,1,1,0,0,1,1,1,1,1,1,1,0,0,1,1,0,1,1,1,1,0,0,0,0,0,0,1,0,0,1,1,0,0,0,0,0,0,1,0,1,1,1,1,1,0,0,0,0,0,1,1,1,0,0,1,1,1,0,1,1,1,0,0,0,0,1,0,0,0,0,1,1,1,0,1,1,1,1,1,0,0,0,1,1,1,0,1,1,1,1,1,1,0,0,1,0,0,0,0,1,0,0,0,0,0,0,1,0,1,0,1,0,0,0,0,0,1,1,1,0,1,1,1,1,0,0,0,1,1,1,0,0,0,0,1,1,1,0,1,1,1,1,1,1,0,0,0,0,0,0,0,1,1,1,0,0,0,0,1,1,1,1,1,1,1,0,1,1,0,0,0,0,1,0,0,0,0,0,1,1,1,1,1,0,0,1,0,0,0,0,1,1,1,1,0,1,0,0,0,0,0,0,1,1,1,1,0,0,0,1,1,1,0,0,0,1,1,0,1,1,1,1,0,0,0,0,1,1,0,0,1,0,0,0,1,1,1,0,1,1,0,0,0,1,1,1,1,0,1,0,1,1,1,0,1,1,0,0,1,1,1,1,0,1,0,0,1,1,0,0,1,0,0,0,1,1,1,0,0,0,1,1,1,1,1,0,1,1,1,1,1,0,0,1,0,0,0,0,0,0,0,0,1,1,1,1,1,1,0,1,1,0,1,0,1,1,1,1,1,0,1,0,1,0,1,0,1,1,0,0,1,0,0,0,0,0,0,1,1,1,0,0,1,1,1,1,0,1,1,0,1,1,1,0,1,1,0,1,1,1,1,0,0,1,0,0,0,0,1,0,0,1,1,1,0,0,0,0,1,0,1,1,0,0,0,0,1,0,1,0,1,0,0,1,1,1,0,1,0,1,0,0,0,0,1,1,0,0,0,0,1,0,0,0,1,0,1,1,1,1,0,0,0,0,0,0,1,1,1,1,0,0,1,0,1,1,0,0,0,1,1,0,1,1,0,0,0,0,0,0,0,1,0,1,0,0,1,1,1,0,0,0,1,1,1,0,1,0,0,0,0,1,1,1,0,0,0,0,0,0,1,0,1,0,0,0,1,1,1,1,0,1,0,0,0,0,1,0,0,0,0,0,0,0,0,0,0,1,0,0,0,0,1,1,0,0,0,0,0,0,0,0,0,0,0,0,0,0,0,0,0,0,0,0,0,0,0,0,0,0,0,0,0,0,0,0,0,0,0,0,0,0,0,0,0,0,0,0,0,0,0,0],"id":2,"left_children":[1,3,5,7,9,11,13,15,17,19,21,23,25,27,29,31,33,-1,35,37,39,41,43,45,47,49,51,53,55,57,59,61,63,65,67,-1,69,71,73,75,77,79,81,83,85,87,89,91,93,95,97,99,101,-1,103,105,107,-1,-1,109,111,113,115,117,119,121,-1,123,-1,-1,125,-1,127,129,131,133,135,137,-1,139,141,143,-1,-1,-1,145,-1,147,-1,-1,-1,149,151,153,155,157,159,161,163,165,167,-1,-1,169,171,173,175,177,179,181,-1,-1,183,185,-1,187,189,191,193,-1,-1,-1,-1,-1,-1,195,-1,-1,197,199,-1,-1,-1,-1,-1,-1,201,-1,203,205,207,209,211,-1,-1,-1,-1,-1,213,215,217,-1,-1,219,221,223,-1,225,227,229,-1,-1,-1,-1,231,-1,-1,-1,-1,233,235,237,-1,239,241,243,245,247,-1,-1,-1,249,251,253,-1,255,257,259,261,263,265,-1,-1,267,-1,-1,-1,-1,269,-1,-1,-1,-1,-1,-1,271,-1,273,-1,275,-1,-1,-1,-1,-1,277,279,281,-1,283,285,287,289,-1,-1,-1,291,293,295,-1,-1,-1,-1,297,299,301,-1,303,305,307,309,311,313,-1,-1,-1,-1,-1,-1,-1,315,317,319,-1,-1,-1,-1,321,323,325,327,329,331,333,-1,335,337,-1,-1,-1,-1,339,-1,-1,-1,-1,-1,341,343,345,347,349,-1,-1,351,-1,-1,-1,-1,353,355,357,359,-1,361,-1,-1,-1,-1,-1,-1,363,365,367,369,-1,-1,-1,371,373,375,-1,-1,-1,377,379,-1,381,383,385,387,-1,-1,-1,-1,389,391,-1,-1,393,-1,-1,-1,395,397,399,-1,401,403,-1,-1,-1,405,407,409,411,-1,413,-1,415,417,419,-1,421,423,-1,-1,425,427,429,431,-1,433,-1,-1,435,437,-1,-1,439,-1,-1,-1,441,443,445,-1,-1,-1,447,449,451,453,455,-1,457,459,461,463,465,-1,-1,467,-1,-1,-1,-1,-1,-1,-1,-1,469,471,473,475,477,479,-1,481,483,-1,485,-1,487,489,491,493,495,-1,497,-1,499,-1,501,-1,503,505,-1,-1,507,-1,-1,-1,-1,-1,-1,509,511,513,-1,-1,515,517,519,521,-1,523,525,-1,527,529,531,-1,533,535,-1,537,539,541,543,-1,-1,545,-1,-1,-1,-1,547,-1,-1,549,551,553,-1,-1,-1,-1,555,-1,557,559,-1,-1,-1,-1,561,-1,563,-1,565,-1,-1,567,569,571,-1,573,-1,575,-1,-1,-1,-1,577,579,-1,-1,-1,-1,581,-1,-1,-1,583,-1,585,587,589,591,-1,-1,-1,-1,-1,-1,593,595,597,599,-1,-1,601,-1,603,605,-1,-1,-1,607,609,-1,611,613,-1,-1,-1,-1,-1,-1,-1,615,-1,617,-1,-1,619,621,623,-1,-1,-1,625,627,629,-1,631,-1,-1,-1,-1,633,635,637,-1,-1,-1,-1,-1,-1,639,-1,641,-1,-1,-1,643,645,647,649,-1,651,-1,-1,-1,-1,653,-1,-1,-1,-1,-1,-1,-1,-1,-1,-1,655,-1,-1,-1,-1,657,659,-1,-1,-1,-1,-1,-1,-1,-1,-1,-1,-1,-1,-1,-1,-1,-1,-1,-1,-1,-1,-1,-1,-1,-1,-1,-1,-1,-1,-1,-1,-1,-1,-1,-1,-1,-1,-1,-1,-1,-1,-1,-1,-1,-1,-1,-1,-1,-1],"loss_changes":[7.298589E2,4.2526373E2,2.1964355E1,2.2680054E1,1.7353793E2,1.5281982E1,2.494336E1,1.8819702E1,4.951706E0,1.12084885E2,6.932953E0,1.2514282E1,1.371228E1,2.5077026E1,1.4753662E1,6.4588013E0,6.2381897E0,0E0,7.1390533E0,2.5848328E1,1.5030365E1,1.3647156E0,9.4690704E-1,5.938448E0,7.0253906E0,1.1469421E1,9.534035E0,1.373526E1,2.1892944E1,2.2744853E0,1.2387451E1,5.269165E-1,5.068054E0,2.657814E-1,9.481781E0,0E0,4.2912445E0,2.5723495E0,1.7081146E1,3.9052887E0,1.6948261E0,1.1505127E-1,4.75414E0,8.339691E-2,3.081131E-2,6.8800163E0,2.304254E0,3.2166748E0,6.069229E0,8.672913E0,2.2229004E1,5.1295547E0,4.882622E0,0E0,6.3050537E0,1.9583252E1,9.667664E0,0E0,0E0,9.923706E0,1.830452E0,4.292183E0,6.466675E-1,8.398323E0,1.5735626E-2,1.1965561E-1,0E0,2.399065E0,0E0,0E0,1.6635668E0,0E0,6.092377E-1,3.9860382E0,7.476139E-1,9.214325E-1,1.2161179E0,1.6296005E-1,0E0,2.9874573E0,1.0508881E0,9.483433E-1,0E0,0E0,0E0,2.3549461E-1,0E0,2.8846483E0,0E0,0E0,0E0,2.456421E0,2.8623276E0,7.7164764E0,1.1823883E0,6.756531E0,2.0951958E0,7.493572E-1,3.1333908E1,1.9536076E0,3.3842245E-1,0E0,0E0,2.8020248E0,2.9537354E0,1.7462524E1,2.6353838E0,2.2346115E0,9.900421E0,4.9935303E0,0E0,0E0,1.1342392E0,6.5604095E0,0E0,4.911255E0,3.1197815E0,5.886814E0,1.550354E0,0E0,0E0,0E0,0E0,0E0,0E0,1.4202368E-1,0E0,0E0,4.2064476E0,1.7452087E0,0E0,0E0,0E0,0E0,0E0,0E0,9.3814087E-1,0E0,1.5771003E0,5.6745565E-1,8.3963776E-1,2.8449125E0,8.5414124E-1,0E0,0E0,0E0,0E0,0E0,4.545212E-3,7.2367554E0,2.8043213E0,0E0,0E0,3.1130219E0,1.501442E0,3.9689002E0,0E0,2.4513489E1,5.4246216E0,1.3455601E0,0E0,0E0,0E0,0E0,5.3841934E0,0E0,0E0,0E0,0E0,4.9455357E-1,4.7582855E0,2.4208221E0,0E0,1.246167E1,2.048462E0,1.4491057E-1,1.1506081E-2,6.7847013E-1,0E0,0E0,0E0,7.3862305E0,6.691498E0,1.3543167E0,0E0,2.23143E0,4.1953206E0,1.4043579E0,1.0753541E0,8.554794E0,1.7010345E0,0E0,0E0,8.939476E-1,0E0,0E0,0E0,0E0,1.1518705E-1,0E0,0E0,0E0,0E0,0E0,0E0,2.1451212E-2,0E0,1.6545868E-1,0E0,2.7640396E-1,0E0,0E0,0E0,0E0,0E0,4.869049E0,2.4549255E0,2.5836975E1,0E0,1.9545441E0,5.2227364E0,2.2433472E-1,4.6479874E0,0E0,0E0,0E0,2.7651398E1,4.9426804E0,7.142353E-1,0E0,0E0,0E0,0E0,8.41733E-1,9.389744E-1,2.7075996E0,0E0,6.8847504E0,4.0216827E-1,5.6113586E0,8.280884E0,5.809124E0,6.202774E-1,0E0,0E0,0E0,0E0,0E0,0E0,0E0,4.4989014E0,1.0288727E1,6.757202E0,0E0,0E0,0E0,0E0,9.0099406E-1,3.783853E0,1.5052948E0,1.4133469E1,4.9368707E-3,5.562496E-2,7.050247E-1,0E0,3.7909403E0,1.2167664E0,0E0,0E0,0E0,0E0,4.175814E-2,0E0,0E0,0E0,0E0,0E0,4.321686E0,6.7837734E0,2.266426E0,1.478363E0,3.0428162E0,0E0,0E0,8.765564E-1,0E0,0E0,0E0,0E0,3.9555893E0,7.3550797E-1,2.5872803E0,3.7039856E1,0E0,2.5371456E0,0E0,0E0,0E0,0E0,0E0,0E0,5.1462364E-1,8.03854E0,8.491392E-1,2.1565819E0,0E0,0E0,0E0,2.1213531E-1,8.376282E0,6.220002E-1,0E0,0E0,0E0,1.2123628E0,1.085672E1,0E0,4.129242E0,1.407692E0,5.557144E0,9.740967E0,0E0,0E0,0E0,0E0,1.1353455E0,5.576992E-1,0E0,0E0,9.642661E-2,0E0,0E0,0E0,4.835472E-1,8.557129E-1,1.7211657E0,0E0,1.3663406E0,1.235651E0,0E0,0E0,0E0,1.4142151E0,6.760466E-1,1.449173E0,1.7750244E0,0E0,2.4281006E0,0E0,6.3258057E0,6.053521E0,4.5092773E-1,0E0,5.1744604E-1,1.2702942E-2,0E0,0E0,1.2388016E1,3.6053467E-1,2.667389E-1,9.0839255E-1,0E0,1.6797638E-1,0E0,0E0,3.5750694E0,6.562925E0,0E0,0E0,1.1312218E0,0E0,0E0,0E0,7.72937E0,3.4919968E0,1.1192465E-1,0E0,0E0,0E0,1.5061962E1,9.983353E0,1.06959E1,4.8806534E0,9.861021E-1,0E0,5.073303E0,4.5509033E0,5.4939234E-1,2.384388E0,1.4389038E-1,0E0,0E0,1.2220545E0,0E0,0E0,0E0,0E0,0E0,0E0,0E0,0E0,2.848629E0,1.4484024E0,1.592241E-1,2.2751522E-1,1.8068237E0,2.6037598E0,0E0,2.612701E-1,8.684883E-1,0E0,4.9728394E-1,0E0,4.952942E0,8.770546E0,1.3438721E0,8.485125E0,1.584732E0,0E0,5.510483E-1,0E0,2.0102341E-1,0E0,1.2749004E0,0E0,5.9606934E-1,3.7455513E1,0E0,0E0,1.4355469E-1,0E0,0E0,0E0,0E0,0E0,0E0,1.9654694E0,6.3840604E-1,6.032276E-1,0E0,0E0,6.288574E0,1.0902805E0,1.3907242E-1,8.937222E0,0E0,1.8255949E-1,8.347912E-1,0E0,7.4571247E0,7.5550976E0,2.2176079E1,0E0,2.6114845E-1,2.065384E0,0E0,1.1628561E0,7.358794E-1,9.239056E0,6.473923E-1,0E0,0E0,2.0294191E-1,0E0,0E0,0E0,0E0,1.6657333E0,0E0,0E0,9.663849E-1,2.7672868E0,2.9534912E-1,0E0,0E0,0E0,0E0,4.1110535E0,0E0,1.3028717E0,2.4274902E0,0E0,0E0,0E0,0E0,8.158455E-1,0E0,4.302368E0,0E0,4.2508163E0,0E0,0E0,4.992752E0,1.9384079E0,2.943801E0,0E0,2.7898884E-1,0E0,1.5713654E0,0E0,0E0,0E0,0E0,1.09817505E-1,5.657959E-2,0E0,0E0,0E0,0E0,2.4026299E0,0E0,0E0,0E0,6.121645E-1,0E0,1.2482056E1,1.3271454E1,1.0350716E-1,2.6750755E-1,0E0,0E0,0E0,0E0,0E0,0E0,1.5786734E0,1.3910828E0,2.5631294E0,1.9828877E0,0E0,0E0,5.465393E-1,0E0,9.4852066E-1,9.0000916E-1,0E0,0E0,0E0,3.4843606E-1,3.7146032E-1,0E0,2.054718E0,8.96286E-1,0E0,0E0,0E0,0E0,0E0,0E0,0E0,2.2930698E0,0E0,3.8423305E0,0E0,0E0,4.1941833E0,1.985878E0,8.6479187E-1,0E0,0E0,0E0,3.2295227E-2,1.1419992E0,2.7702217E0,0E0,1.0182972E0,0E0,0E0,0E0,0E0,6.902815E0,2.8131807E-1,1.4432579E0,0E0,0E0,0E0,0E0,0E0,0E0,3.4889297E0,0E0,1.9560814E0,0E0,0E0,0E0,1.5294693E1,1.4354828E1,2.322754E0,1.8826828E0,0E0,5.2577466E-2,0E0,0E0,0E0,0E0,5.8285856E-1,0E0,0E0,0E0,0E0,0E0,0E0,0E0,0E0,0E0,0E0,4.829562E-2,0E0,0E0,0E0,0E0,3.058525E0,1.1511898E0,0E0,0E0,0E0,0E0,0E0,0E0,0E0,0E0,0E0,0E0,0E0,0E0,0E0,0E0,0E0,0E0,0E0,0E0,0E0,0E0,0E0,0E0,0E0,0E0,0E0,0E0,0E0,0E0,0E0,0E0,0E0,0E0,0E0,0E0,0E0,0E0,0E0,0E0,0E0,0E0,0E0,0E0,0E0,0E0,0E0,0E0,0E0,0E0],"parents":[2147483647,0,0,1,1,2,2,3,3,4,4,5,5,6,6,7,7,8,8,9,9,10,10,11,11,12,12,13,13,14,14,15,15,16,16,18,18,19,19,20,20,21,21,22,22,23,23,24,24,25,25,26,26,27,27,28,28,29,29,30,30,31,31,32,32,33,33,34,34,36,36,37,37,38,38,39,39,40,40,41,41,42,42,43,43,44,44,45,45,46,46,47,47,48,48,49,49,50,50,51,51,52,52,54,54,55,55,56,56,59,59,60,60,61,61,62,62,63,63,64,64,65,65,67,67,70,70,72,72,73,73,74,74,75,75,76,76,77,77,79,79,80,80,81,81,85,85,87,87,91,91,92,92,93,93,94,94,95,95,96,96,97,97,98,98,99,99,100,100,103,103,104,104,105,105,106,106,107,107,108,108,109,109,112,112,113,113,115,115,116,116,117,117,118,118,125,125,128,128,129,129,136,136,138,138,139,139,140,140,141,141,142,142,148,148,149,149,150,150,153,153,154,154,155,155,157,157,158,158,159,159,164,164,169,169,170,170,171,171,173,173,174,174,175,175,176,176,177,177,181,181,182,182,183,183,185,185,186,186,187,187,188,188,189,189,190,190,193,193,198,198,205,205,207,207,209,209,215,215,216,216,217,217,219,219,220,220,221,221,222,222,226,226,227,227,228,228,233,233,234,234,235,235,237,237,238,238,239,239,240,240,241,241,242,242,250,250,251,251,252,252,257,257,258,258,259,259,260,260,261,261,262,262,263,263,265,265,266,266,271,271,277,277,278,278,279,279,280,280,281,281,284,284,289,289,290,290,291,291,292,292,294,294,301,301,302,302,303,303,304,304,308,308,309,309,310,310,314,314,315,315,317,317,318,318,319,319,320,320,325,325,326,326,329,329,333,333,334,334,335,335,337,337,338,338,342,342,343,343,344,344,345,345,347,347,349,349,350,350,351,351,353,353,354,354,357,357,358,358,359,359,360,360,362,362,365,365,366,366,369,369,373,373,374,374,375,375,379,379,380,380,381,381,382,382,383,383,385,385,386,386,387,387,388,388,389,389,392,392,401,401,402,402,403,403,404,404,405,405,406,406,408,408,409,409,411,411,413,413,414,414,415,415,416,416,417,417,419,419,421,421,423,423,425,425,426,426,429,429,436,436,437,437,438,438,441,441,442,442,443,443,444,444,446,446,447,447,449,449,450,450,451,451,453,453,454,454,456,456,457,457,458,458,459,459,462,462,467,467,470,470,471,471,472,472,477,477,479,479,480,480,485,485,487,487,489,489,492,492,493,493,494,494,496,496,498,498,503,503,504,504,509,509,513,513,515,515,516,516,517,517,518,518,525,525,526,526,527,527,528,528,531,531,533,533,534,534,538,538,539,539,541,541,542,542,550,550,552,552,555,555,556,556,557,557,561,561,562,562,563,563,565,565,570,570,571,571,572,572,579,579,581,581,585,585,586,586,587,587,588,588,590,590,595,595,606,606,611,611,612,612],"right_children":[2,4,6,8,10,12,14,16,18,20,22,24,26,28,30,32,34,-1,36,38,40,42,44,46,48,50,52,54,56,58,60,62,64,66,68,-1,70,72,74,76,78,80,82,84,86,88,90,92,94,96,98,100,102,-1,104,106,108,-1,-1,110,112,114,116,118,120,122,-1,124,-1,-1,126,-1,128,130,132,134,136,138,-1,140,142,144,-1,-1,-1,146,-1,148,-1,-1,-1,150,152,154,156,158,160,162,164,166,168,-1,-1,170,172,174,176,178,180,182,-1,-1,184,186,-1,188,190,192,194,-1,-1,-1,-1,-1,-1,196,-1,-1,198,200,-1,-1,-1,-1,-1,-1,202,-1,204,206,208,210,212,-1,-1,-1,-1,-1,214,216,218,-1,-1,220,222,224,-1,226,228,230,-1,-1,-1,-1,232,-1,-1,-1,-1,234,236,238,-1,240,242,244,246,248,-1,-1,-1,250,252,254,-1,256,258,260,262,264,266,-1,-1,268,-1,-1,-1,-1,270,-1,-1,-1,-1,-1,-1,272,-1,274,-1,276,-1,-1,-1,-1,-1,278,280,282,-1,284,286,288,290,-1,-1,-1,292,294,296,-1,-1,-1,-1,298,300,302,-1,304,306,308,310,312,314,-1,-1,-1,-1,-1,-1,-1,316,318,320,-1,-1,-1,-1,322,324,326,328,330,332,334,-1,336,338,-1,-1,-1,-1,340,-1,-1,-1,-1,-1,342,344,346,348,350,-1,-1,352,-1,-1,-1,-1,354,356,358,360,-1,362,-1,-1,-1,-1,-1,-1,364,366,368,370,-1,-1,-1,372,374,376,-1,-1,-1,378,380,-1,382,384,386,388,-1,-1,-1,-1,390,392,-1,-1,394,-1,-1,-1,396,398,400,-1,402,404,-1,-1,-1,406,408,410,412,-1,414,-1,416,418,420,-1,422,424,-1,-1,426,428,430,432,-1,434,-1,-1,436,438,-1,-1,440,-1,-1,-1,442,444,446,-1,-1,-1,448,450,452,454,456,-1,458,460,462,464,466,-1,-1,468,-1,-1,-1,-1,-1,-1,-1,-1,470,472,474,476,478,480,-1,482,484,-1,486,-1,488,490,492,494,496,-1,498,-1,500,-1,502,-1,504,506,-1,-1,508,-1,-1,-1,-1,-1,-1,510,512,514,-1,-1,516,518,520,522,-1,524,526,-1,528,530,532,-1,534,536,-1,538,540,542,544,-1,-1,546,-1,-1,-1,-1,548,-1,-1,550,552,554,-1,-1,-1,-1,556,-1,558,560,-1,-1,-1,-1,562,-1,564,-1,566,-1,-1,568,570,572,-1,574,-1,576,-1,-1,-1,-1,578,580,-1,-1,-1,-1,582,-1,-1,-1,584,-1,586,588,590,592,-1,-1,-1,-1,-1,-1,594,596,598,600,-1,-1,602,-1,604,606,-1,-1,-1,608,610,-1,612,614,-1,-1,-1,-1,-1,-1,-1,616,-1,618,-1,-1,620,622,624,-1,-1,-1,626,628,630,-1,632,-1,-1,-1,-1,634,636,638,-1,-1,-1,-1,-1,-1,640,-1,642,-1,-1,-1,644,646,648,650,-1,652,-1,-1,-1,-1,654,-1,-1,-1,-1,-1,-1,-1,-1,-1,-1,656,-1,-1,-1,-1,658,660,-1,-1,-1,-1,-1,-1,-1,-1,-1,-1,-1,-1,-1,-1,-1,-1,-1,-1,-1,-1,-1,-1,-1,-1,-1,-1,-1,-1,-1,-1,-1,-1,-1,-1,-1,-1,-1,-1,-1,-1,-1,-1,-1,-1,-1,-1,-1,-1],"split_conditions":[1.5E0,2.5E0,2.5E0,3.5E0,2.5E0,3.5E0,1.5E0,1.5E0,3.5E1,6.75E1,6.75E1,2.25E1,5.5E0,3.75E1,2.25E1,7E0,1.5E0,2.4266106E-1,5.25E1,6.25E1,4E0,7E0,3.5E0,1.75E1,1.5E0,5E-1,6.5E0,2.25E1,1.5E0,1.5E0,1.5E0,4.25E1,1.5E0,6.75E1,7.25E1,8.7321657E-1,4E0,4E1,1.5E0,7.25E1,5.5E0,1.5E0,3.5E0,1.5E0,4.5E0,2.5E0,1.5E0,5E-1,5E-1,1.5E0,2.75E1,5E0,2E0,4.5851344E-1,1.5E0,8.65E1,8.4E1,2.3165017E-1,2.5279226E-2,8.65E1,5.5E0,3.75E1,5.75E1,4E1,4.5E1,5E-1,5.2933276E-1,1.5E0,2.4342701E-1,4.2583454E-1,1.5E0,-0E0,1.5E0,1.5E0,5.5E0,2.5E0,1.5E0,7.25E1,2.506792E-1,4.75E1,3.5E0,6E1,-1.0795053E-2,2.417674E-1,1.6534296E-1,3.5E0,2.8450003E-1,5E-1,5.827379E-1,1.6575709E-1,4.879359E-2,1.5E0,5E0,2.5E0,6.65E1,4.25E1,4.5E0,1.5E0,3.25E1,3.25E1,1.5E0,5.737248E-1,9.200646E-2,3.5E0,4.5E0,5E-1,3.5E0,5E-1,2.5E0,4E0,4.4699186E-1,-0E0,8.5E0,2.5E0,1.6037783E-1,5.5E0,1.5E0,1.5E0,6E1,1.17930815E-1,2.6869312E-1,2.2501692E-1,5.520389E-2,5.0204575E-2,1.4887586E-1,2E0,3.900161E-1,3.4925875E-1,4.75E1,1.5E0,1.9963835E-1,3.729123E-1,2.6633406E-2,2.4649751E-1,4.4979933E-1,4.188421E-1,7.75E1,9.722985E-2,7.75E1,1.5E0,6.25E1,4E0,3.5E0,8.67276E-1,2.180929E-1,1.3258843E-1,2.8450003E-1,9.713954E-2,1E0,1.5E0,8.65E1,3.3128905E-1,-0E0,5.75E1,3.5E0,3.25E1,9.033995E-1,5E-1,2.5E0,5E0,2.8589836E-1,1.5770033E-1,3.0021936E-1,1.49961E0,3.75E1,-0E0,2.0770489E-1,1.1027238E-2,1.3308685E-1,2.5E0,7E0,1.5E0,-0E0,1.5E0,4E0,2E0,1.5E0,4E0,4.1987243E-1,7.668143E-1,-0E0,3.75E1,4.5E0,3.5E0,1.7153175E-1,5E-1,5.5E0,1.5E0,1.5E0,7.75E1,6.25E1,1.1293314E0,3.162405E-1,8.5E0,1.2645248E-1,-0E0,8.635441E-2,3.5679755E-1,1.5E0,3.1950435E-1,3.5060916E-2,1.8323001E-1,-0E0,4.178134E-1,-0E0,5E-1,1.173259E-1,5.75E1,3.8449156E-1,6E1,2.4605812E-1,2.515758E-1,-0E0,3.3450025E-1,-0E0,5.75E1,7E0,7.25E1,2.3213834E-1,1.5E0,6.75E1,2.75E1,7E0,7.1121395E-1,1.0934154E-2,4.5882648E-1,3.75E1,1.5E0,2.5E0,1.5515257E-1,-0E0,5.5637926E-1,2.9503912E-1,1.5E0,3E1,1.5E0,3.2399997E-2,5E-1,5.5E0,6E1,5.5E0,3.5E0,4.25E1,4.97101E-2,-0E0,-0E0,2.4162646E-1,6.360406E-2,3.476233E-1,1.0367033E0,3.5E0,6.75E1,4.25E1,1.2880903E-1,4.2899403E-1,3.3526298E-1,1.4185281E-1,2.75E1,3E1,1.5E0,5E1,2E0,5.25E1,1.5E0,1.1215876E0,2.5E0,2.5E0,3.9701337E-1,3.7029877E-2,-7.051457E-2,-0E0,3.5E0,-4.2461444E-2,2.826509E-1,1.235493E-1,-9.7371645E-2,-0E0,1.5E0,5E-1,1.5E0,5E-1,2.5E0,1.1504575E0,1.5469223E-1,5.25E1,8.550326E-1,-0E0,1.5117027E-1,2.3301312E-1,5E-1,6E0,4.5E0,1.5E0,2.6106113E-1,4.75E1,4.869012E-1,-0E0,3.4365675E-1,7.314772E-2,1.5241815E-1,-0E0,3.25E1,3.5E0,5E-1,5E-1,2.1392763E-1,1.3832934E-1,-0E0,5E0,6.75E1,6.75E1,3.6189014E-1,1.0587552E0,4.892619E-1,4.75E1,6.25E1,1.9493961E-1,3.5E0,1.5E0,5E-1,5.5E0,-1.6800064E-1,1.0544292E-3,5.110614E-1,5.3787053E-2,3.5E0,2.5E0,2.7986643E-1,6.153118E-1,5E1,1.6632177E-2,1.07576996E-1,2.2036709E-1,7.25E1,4.5E0,4E0,5.1809007E-1,2.5E0,3.5E0,4.756216E-2,-1.0795053E-2,6.861601E-2,2.75E1,7.9E1,1.5E0,5.5E1,1.4861596E-1,2.75E1,8.084481E-2,1.5E0,2.5E0,1.5E0,-0E0,6E0,2.75E1,4.1696304E-1,2.1822476E-1,1.5E0,4.5E0,4.5E0,3.5E0,8.5288435E-2,4.5E0,1.5469247E-1,-0E0,5E-1,3.25E1,1.3155735E-1,3.0303085E-1,2.5E0,1.8076521E-1,1.6520023E-2,4.992997E-1,2.5E0,4.5E0,5.75E1,-0E0,-0E0,2.6533812E-1,2.5E0,2.5E0,5.75E1,5.75E1,2.5E0,2.5833547E-1,3.25E1,3.75E1,7E0,1.5E0,1.5E0,-0E0,1.5002015E-1,4E0,-0E0,-9.0025865E-2,3.018996E-1,1.714034E-1,1.8945992E-1,3.8642716E-1,1.654154E-1,-0E0,1.5E0,5.5E0,3.5E0,3.5E0,5E-1,5.25E1,6.263875E-2,1.5E0,9.85E1,1.284313E-1,5.5E0,-0E0,2.5E0,6.65E1,4.25E1,2.5E0,3.75E1,1.8993834E-2,2.75E1,5.3451758E-2,6.15E1,3.990652E-1,3E0,1.243301E0,1.5E0,4.5E0,1.0675496E-1,2.2844855E-1,3E0,7.763445E-2,6.1101045E-2,-1.2695189E-1,2.6148814E-1,-0E0,1.5848784E-1,2.75E1,4.5E0,5.5E0,5.4878676E-1,-0E0,3.5E0,5.75E1,2E0,5.5E0,1.0044801E-1,6E0,5.25E1,-4.6913058E-2,1.5E0,1.5E0,7E0,2.2804035E-1,7E0,2.5E0,1.04188524E-1,3.5E0,6.5E0,6E0,7E0,3.6166808E-1,6.353931E-2,6E0,3.761422E-1,1.4631532E-1,4.902284E-1,2.7112362E-1,2.5E0,1.5594901E-1,-0E0,6.75E1,4E0,6.75E1,-0E0,8.1297904E-2,3.1918752E-1,1.3011919E-1,1.5E0,1.930395E-1,4E0,2E0,-3.7663545E-2,6.792838E-2,3.496091E-1,1.770263E-1,4E0,4.468545E-1,1.5E0,-1.3893145E-1,2E0,2.4919946E-1,3.55347E-1,1.5E0,6.75E1,7E0,4.7209594E-1,5E-1,4.8027438E-1,3.25E1,-0E0,9.704144E-2,1.11089654E-1,6.4220953E-1,5E0,3.25E1,1.246218E-1,1.6001261E0,6.7908365E-1,8.7623745E-2,5E-1,-0E0,8.296768E-2,-0E0,4.5E0,-0E0,2.5E0,4.5E0,2.5E0,4.5E0,1.7654924E-1,3.4959444E-1,8.895968E-1,2.2646411E-1,2.2648294E-1,-0E0,1.5E0,4.5E0,1.5E0,2.5E0,9.759021E-1,1.3542725E-1,4.5E1,9.9476093E-1,5.25E1,4.5E0,3.4960184E-1,1.6643587E-1,2.3922364E-1,4.5E0,4E0,2.3724398E-1,4.5E0,7.5E0,4.2692888E-1,1.8285711E-1,-3.8126815E-2,6.689811E-3,5.540609E-1,5.245683E-2,3.1099492E-1,8.7E1,2.663637E-1,6.75E1,-0E0,3.1828225E-1,5E-1,2.5E0,5E-1,4.6296573E-1,3.749523E-1,2.1986616E-1,3.25E1,5E-1,5E-1,2.772869E-1,5E-1,1.1825571E0,-0E0,2.8672373E-1,2.058984E-1,5E0,3.75E1,4.25E1,5.940023E-2,2.315624E-1,-0E0,3.4172744E-1,2.2944282E-1,-0E0,2.75E1,3.9147505E-1,2.5E0,2.8490272E-1,-0E0,4.8673052E-1,5.75E1,5.25E1,5.75E1,5.5E0,7.213438E-2,5.25E1,2.1655542E-1,1.252378E-1,3.7988117E-1,1.131638E-1,2.5E0,2.8434837E-1,1.5916603E-3,2.8820255E-1,-2.1973063E-1,4.7188412E-2,-0E0,3.7180075E-1,-0E0,2.2598578E-1,1.3429342E-1,6.5E0,-0E0,1.3990343E-1,9.229161E-2,-0E0,3.75E1,4E0,1.9508356E-1,-0E0,8.277605E-1,3.286507E-2,2.0325471E-1,-1.9790341E-1,1.3611694E-1,2.6349077E-1,3.4090135E-1,6.5837845E-2,2.0070226E-1,1.08833164E-1,2.5448823E-1,4.2642286E-1,2.646179E-1,3.8295504E-2,2.8417084E-1,1.3374926E-1,5.9932995E-1,2.362012E-1,-0E0,6.0129535E-1,1.543275E-1,-0E0,-2.0798042E-1,3.5105146E-2,2.852979E-1,-0E0,1.1260217E0,4.5614752E-1,3.922886E-1,2.1989283E-1,-4.1231774E-2,2.3651317E-1,2.5920105E-1,3.879138E-1,2.729912E-1,1.7660095E-1,5.289855E-2,-7.4456553E-3,-0E0,1.1983632E-1,-3.9873824E-2,5.811793E-3,8.917005E-1,3.5105146E-2,-0E0,4.1710532E-1],"split_indices":[0,6,6,4,2,2,5,4,3,3,3,3,2,3,3,5,6,0,3,3,5,5,2,3,4,7,2,3,1,2,1,3,1,3,3,0,5,3,4,3,5,5,6,5,2,3,6,9,7,1,3,5,1,0,1,3,3,0,0,3,5,3,3,3,3,7,0,5,0,0,6,0,5,5,5,4,2,3,0,3,5,3,0,0,0,5,0,8,0,0,0,6,8,4,3,3,2,6,3,3,1,0,0,6,9,8,6,8,2,5,0,0,6,5,0,5,5,6,3,0,0,0,0,0,0,1,0,0,3,2,0,0,0,0,0,0,3,0,3,1,3,2,2,0,0,0,0,0,2,5,3,0,0,3,4,3,0,8,5,5,0,0,0,0,3,0,0,0,0,2,2,2,0,2,2,4,2,2,0,0,0,3,6,6,0,8,5,6,6,3,3,0,0,5,0,0,0,0,2,0,0,0,0,0,0,8,0,3,0,3,0,0,0,0,0,3,5,3,0,2,3,3,5,0,0,0,3,6,4,0,0,0,0,2,3,2,0,8,2,3,6,6,3,0,0,0,0,0,0,0,2,3,3,0,0,0,0,3,3,5,3,1,3,6,0,2,2,0,0,0,0,2,0,0,0,0,0,2,8,1,7,1,0,0,3,0,0,0,0,8,4,2,6,0,3,0,0,0,0,0,0,3,2,7,7,0,0,0,6,3,3,0,0,0,3,3,0,2,4,8,6,0,0,0,0,2,5,0,0,3,0,0,0,3,7,5,0,5,5,0,0,0,3,3,1,3,0,3,0,5,2,1,0,4,3,0,0,6,5,2,5,0,2,0,0,8,3,0,0,1,0,0,0,4,2,3,0,0,0,5,5,3,3,2,0,3,3,5,4,2,0,0,5,0,0,0,0,0,0,0,0,2,5,2,2,7,3,0,1,3,0,5,0,1,3,3,2,3,0,3,0,3,0,5,0,5,5,0,0,5,0,0,0,0,0,0,3,6,2,0,0,2,3,4,2,0,2,3,0,4,4,5,0,5,4,0,2,2,2,5,0,0,2,0,0,0,0,2,0,0,3,5,3,0,0,0,0,1,0,0,1,0,0,0,0,5,0,1,0,1,0,0,2,3,5,0,7,0,3,0,0,0,0,8,3,0,0,0,0,7,0,0,0,2,0,2,2,2,2,0,0,0,0,0,0,4,6,2,2,0,0,3,0,3,2,0,0,0,2,2,0,4,2,0,0,0,0,0,0,0,3,0,3,0,0,8,2,7,0,0,0,3,8,8,0,8,0,0,0,0,5,3,3,0,0,0,0,0,0,3,0,2,0,0,0,3,3,3,2,0,3,0,0,0,0,2,0,0,0,0,0,0,0,0,0,0,2,0,0,0,0,3,2,0,0,0,0,0,0,0,0,0,0,0,0,0,0,0,0,0,0,0,0,0,0,0,0,0,0,0,0,0,0,0,0,0,0,0,0,0,0,0,0,0,0,0,0,0,0,0,0],"split_type":[0,0,0,0,0,0,0,0,0,0,0,0,0,0,0,0,0,0,0,0,0,0,0,0,0,0,0,0,0,0,0,0,0,0,0,0,0,0,0,0,0,0,0,0,0,0,0,0,0,0,0,0,0,0,0,0,0,0,0,0,0,0,0,0,0,0,0,0,0,0,0,0,0,0,0,0,0,0,0,0,0,0,0,0,0,0,0,0,0,0,0,0,0,0,0,0,0,0,0,0,0,0,0,0,0,0,0,0,0,0,0,0,0,0,0,0,0,0,0,0,0,0,0,0,0,0,0,0,0,0,0,0,0,0,0,0,0,0,0,0,0,0,0,0,0,0,0,0,0,0,0,0,0,0,0,0,0,0,0,0,0,0,0,0,0,0,0,0,0,0,0,0,0,0,0,0,0,0,0,0,0,0,0,0,0,0,0,0,0,0,0,0,0,0,0,0,0,0,0,0,0,0,0,0,0,0,0,0,0,0,0,0,0,0,0,0,0,0,0,0,0,0,0,0,0,0,0,0,0,0,0,0,0,0,0,0,0,0,0,0,0,0,0,0,0,0,0,0,0,0,0,0,0,0,0,0,0,0,0,0,0,0,0,0,0,0,0,0,0,0,0,0,0,0,0,0,0,0,0,0,0,0,0,0,0,0,0,0,0,0,0,0,0,0,0,0,0,0,0,0,0,0,0,0,0,0,0,0,0,0,0,0,0,0,0,0,0,0,0,0,0,0,0,0,0,0,0,0,0,0,0,0,0,0,0,0,0,0,0,0,0,0,0,0,0,0,0,0,0,0,0,0,0,0,0,0,0,0,0,0,0,0,0,0,0,0,0,0,0,0,0,0,0,0,0,0,0,0,0,0,0,0,0,0,0,0,0,0,0,0,0,0,0,0,0,0,0,0,0,0,0,0,0,0,0,0,0,0,0,0,0,0,0,0,0,0,0,0,0,0,0,0,0,0,0,0,0,0,0,0,0,0,0,0,0,0,0,0,0,0,0,0,0,0,0,0,0,0,0,0,0,0,0,0,0,0,0,0,0,0,0,0,0,0,0,0,0,0,0,0,0,0,0,0,0,0,0,0,0,0,0,0,0,0,0,0,0,0,0,0,0,0,0,0,0,0,0,0,0,0,0,0,0,0,0,0,0,0,0,0,0,0,0,0,0,0,0,0,0,0,0,0,0,0,0,0,0,0,0,0,0,0,0,0,0,0,0,0,0,0,0,0,0,0,0,0,0,0,0,0,0,0,0,0,0,0,0,0,0,0,0,0,0,0,0,0,0,0,0,0,0,0,0,0,0,0,0,0,0,0,0,0,0,0,0,0,0,0,0,0,0,0,0,0,0,0,0,0,0,0,0,0,0,0,0,0,0,0,0,0,0,0,0,0,0,0,0,0,0,0,0,0,0,0,0,0,0,0,0,0,0,0,0,0,0,0,0,0,0,0,0,0,0,0,0,0,0,0,0,0,0,0,0,0,0,0,0,0,0,0,0],"sum_hessian":[2.913E4,1.385E4,1.528E4,2.748E3,1.1102E4,6.714E3,8.566E3,2.541E3,2.07E2,1.0159E4,9.43E2,4.891E3,1.823E3,3.751E3,4.815E3,2.03E3,5.11E2,5E1,1.57E2,8.973E3,1.186E3,6.02E2,3.41E2,2.22E2,4.669E3,1.619E3,2.04E2,1.153E3,2.598E3,1.12E2,4.703E3,1.853E3,1.77E2,1.88E2,3.23E2,7E0,1.5E2,6.5E1,8.908E3,7.62E2,4.24E2,5.94E2,8E0,1.7E2,1.71E2,6.9E1,1.53E2,4.19E3,4.79E2,1.451E3,1.68E2,1.81E2,2.3E1,3.4E1,1.119E3,2.52E3,7.8E1,1E1,1.02E2,4.615E3,8.8E1,3.29E2,1.524E3,8.9E1,8.8E1,1.86E2,2E0,2.34E2,8.9E1,1.31E2,1.9E1,2E0,6.3E1,8.878E3,3E1,2.26E2,5.36E2,4.07E2,1.7E1,2.21E2,3.73E2,7E0,1E0,1.06E2,6.4E1,1.64E2,7E0,6E1,9E0,5E1,1.03E2,4.076E3,1.14E2,4.68E2,1.1E1,1.317E3,1.34E2,7.1E1,9.7E1,1.25E2,5.6E1,1.5E1,8E0,5.26E2,5.93E2,2.424E3,9.6E1,4.8E1,3E1,4.585E3,3E1,3E0,8.5E1,1.74E2,1.55E2,7.33E2,7.91E2,1.1E1,7.8E1,1.3E1,7.5E1,1.78E2,8E0,1.66E2,6.8E1,1.5E1,4E0,4.7E1,1.6E1,8.853E3,2.5E1,2.6E1,4E0,2.16E2,1E1,6E0,5.3E2,3.98E2,9E0,1.4E1,2.07E2,1.7E1,3.56E2,3E0,4E0,1.57E2,7E0,4.1E1,1.9E1,2.456E3,1.62E3,1.12E2,2E0,1.44E2,3.24E2,7E0,4E0,1.001E3,3.16E2,1.03E2,3.1E1,4.4E1,2.7E1,5E0,9.2E1,1.2E1,1.13E2,5.1E1,5E0,2.15E2,3.11E2,5.79E2,1.4E1,2.376E3,4.8E1,8E1,1.6E1,1.6E1,3.2E1,2.7E1,3E0,3.243E3,1.342E3,7.2E1,1.3E1,1.39E2,3.5E1,6.7E2,6.3E1,4.9E2,3.01E2,5E0,6E0,6.7E1,1.1E1,6E0,9E0,8E0,8E0,3E0,8.85E3,5.23E2,7E0,3E0,6E0,4E0,1E1,1.57E2,5E1,8E0,9E0,3.53E2,3E0,1.7E1,2E0,1.799E3,6.57E2,7.81E2,8.39E2,1.36E2,8E0,2.12E2,1.12E2,2E0,5E0,1.79E2,8.22E2,2.95E2,2.1E1,9.2E1,1.1E1,5.8E1,3.4E1,1.31E2,8.4E1,2.71E2,4E1,9.1E1,4.88E2,6.5E1,2.311E3,1.5E1,3.3E1,5.3E1,2.7E1,2E0,1.4E1,1.3E1,3E0,1E0,3.242E3,5E2,8.42E2,8E0,6.4E1,1.17E2,2.2E1,1.8E1,1.7E1,4.03E2,2.67E2,1.1E1,5.2E1,4.89E2,1E0,5.3E1,2.48E2,6.3E1,4E0,3E0,5E0,3E0,1E0,1.44E2,1.3E1,6E0,2E0,1.626E3,1.73E2,1.56E2,5.01E2,7.76E2,5E0,1.7E1,1.19E2,6E0,2E0,5E1,1.62E2,1.9E1,9.3E1,7.38E2,8.4E1,1.94E2,1.01E2,1.9E1,2E0,2E0,1.29E2,8E1,4E0,1.52E2,1.19E2,5.5E1,3.6E1,4.34E2,5.4E1,6E0,5.9E1,2.228E3,8.3E1,9E0,6E0,2E1,1.3E1,2.95E2,2.947E3,3.33E2,1.67E2,7.22E2,1.2E2,5E0,1.3E1,5E0,1.2E1,3.06E2,9.7E1,2.41E2,2.6E1,9E0,2E0,2.9E1,2.3E1,9E1,3.99E2,4.8E1,5E0,2.08E2,4E1,2E0,1E0,4E1,1.586E3,7E1,1.03E2,1.35E2,2.1E1,4.84E2,1.7E1,6.93E2,8.3E1,1.17E2,2E0,9E0,1E1,1E1,8.3E1,4.01E2,3.37E2,6.5E1,1.9E1,7.4E1,2.7E1,1.51E2,1E0,5.5E1,6.4E1,4.1E1,1.4E1,2.6E1,1E1,2E0,5.7E1,1.882E3,3.46E2,8E1,3E0,1E0,1.2E1,2.05E2,9E1,1.44E2,1.89E2,1.28E2,3.9E1,1.09E2,6.13E2,6.5E1,5.5E1,3.05E2,1E0,6.7E1,3E1,8E0,1E0,5.8E1,3.2E1,3.91E2,8E0,3.9E1,9E0,2.3E1,1.85E2,1.1E1,2.9E1,5.7E2,1.016E3,4.6E1,2.4E1,5.6E1,4.7E1,1.31E2,4E0,3.77E2,1.07E2,5.54E2,1.39E2,5.1E1,3.2E1,1.13E2,4E0,7E0,2E0,9E0,1E0,3.88E2,1.3E1,2E1,3.17E2,6.3E1,2E0,1.4E1,5E0,2.5E1,2E0,1.7E1,3.8E1,5.1E1,1.3E1,2.4E1,2E0,1.746E3,1.36E2,3.13E2,3.3E1,6.4E1,1.6E1,1.19E2,8.6E1,8E1,1E1,7.9E1,6.5E1,7.3E1,1.16E2,8.5E1,4.3E1,3.9E1,7E1,5.81E2,3.2E1,1.3E1,5.2E1,1.6E1,3.9E1,6E0,2.99E2,1E1,2E1,3E0,2E1,3.6E1,1.49E2,7E0,4E0,1.3E1,1.6E1,4.16E2,1.54E2,8.83E2,1.33E2,2.2E1,2E0,2.3E1,3.3E1,9.4E1,3.7E1,3.73E2,4E0,2.1E1,8.6E1,1.28E2,4.26E2,1.07E2,3.2E1,8E0,4.3E1,3.4E1,7.9E1,2E0,5E0,4E0,5E0,1.49E2,2.39E2,9E0,4E0,6.1E1,2E0,3.6E1,2E0,4.1E1,1E1,1.1E1,2E0,1.064E3,6.82E2,1.9E1,1.17E2,3.07E2,6E0,4E0,2.9E1,1.3E1,3E0,2.8E1,9.1E1,6.5E1,1.5E1,5E0,5E0,6.7E1,1.2E1,3.4E1,3.9E1,9E1,2.6E1,3.5E1,8E0,2.1E1,1.8E1,4.1E1,2.9E1,4E0,5.77E2,4.7E1,5E0,6E0,4E0,1.2E1,8E0,2.2E1,1.4E1,2E0,1.47E2,2.69E2,1.47E2,8.78E2,5E0,4.2E1,9.1E1,5.6E1,3.8E1,1.52E2,2.21E2,1.9E1,2E0,9E0,4.17E2,9.1E1,1.6E1,1.9E1,1.3E1,1E1,3.3E1,3E0,7.6E1,1.46E2,3E0,2.12E2,2.7E1,1.8E1,1.8E1,2E0,9E0,4.02E2,6.62E2,3.89E2,2.93E2,1E1,9E0,7.4E1,4.3E1,1.3E1,1.5E1,7.8E1,1.3E1,9E0,5.6E1,6E0,9E0,2E0,6.5E1,3E0,3.1E1,3.1E1,8E0,6E0,2E0,2E1,1E0,9E0,3.2E1,2.6E1,3E0,6E0,2E0,8E0,6E0,8.3E1,1.86E2,1.38E2,9E0,8.36E2,4.2E1,2.5E1,3.1E1,2.8E1,1E1,3.6E1,1.16E2,8E0,1.1E1,6E0,1E1,1E1,9E0,1.1E1,2E0,2.05E2,7E0,2E0,1.6E1,2.31E2,1.71E2,3E1,6.32E2,5.8E1,3.31E2,2.05E2,8.8E1,2E0,7E0,7E0,7.1E1,4E0,4E0,7E0,2E0,1E0,3.1E1],"tree_param":{"num_deleted":"0","num_feature":"10","num_nodes":"661","size_leaf_vector":"0"}},{"base_weights":[2.5697908E-1,1.5633722E-1,3.4812057E-1,3.7289786E-1,1.0261466E-1,3.4401426E-1,5.8387655E-1,3.5703057E-1,5.999165E-1,7.940624E-2,3.512322E-1,3.6581486E-1,3.1071573E-1,5.28757E-1,8.882383E-1,3.4000152E-1,4.9692708E-1,6.18524E-1,1.3290152E-1,5.627388E-2,2.5338295E-1,3.9148602E-1,2.763074E-1,3.25881E-1,3.8274625E-1,3.963273E-1,2.874937E-1,7.9327285E-1,4.8293543E-1,1.4093993E0,6.1516726E-1,3.6498055E-1,2.4704723E-1,5.781425E-1,3.131141E-1,5.3694595E-2,4.8688778E-1,3.031129E-1,1.6115397E-1,3.7787366E-1,6.7484707E-1,2.572913E-1,4.321651E-1,3.20179E-1,4.8916715E-1,4.8201078E-1,3.643323E-1,3.857964E-1,5.809469E-1,8.63043E-2,2.9664317E-1,1.1185308E0,2.5501135E-1,3.38677E-1,6.502086E-1,1.6879623E0,-0E0,1.7556906E-2,7.0900035E-1,3.53743E-1,4.3723446E-1,3.304119E-1,1.8260178E-1,1.0913386E0,4.837043E-1,5.1293135E-2,6.5068495E-1,5.480767E-1,-1.1910087E-1,3.7792802E-1,2.690605E-1,1.46327E-1,4.0408397E-1,4.2565805E-1,3.445792E-1,4.4199437E-1,1.7465336E0,2.9995823E-1,2.1114181E-1,2.8577587E-1,3.5661486E-1,6.53597E-1,2.8536594E-1,5.2253336E-1,2.5302574E-1,3.5476968E-1,5.101648E-1,3.909116E-1,1.8148372E-1,4.742858E-1,1.4806938E0,7.545515E-1,6.1567467E-2,2.831008E-1,4.007417E-1,8.04994E-1,2.410791E0,3.2649446E-1,-0E0,1.3563281E-1,4.1457003E-1,3.5388651E-1,7.087367E-1,3.4572664E-1,4.4423196E-1,2.518477E-1,4.612372E-1,3.1525E-1,9.381669E-1,1.0082636E-1,3.5300213E-1,1.5958384E0,1.6739893E-1,5.0266337E-2,2.6861748E-1,6.9683415E-1,4.3652773E-2,4.1374096E-1,1.8097803E-1,2.5239605E-1,4.7876087E-1,6.805796E-2,4.445924E-1,1.0679268E-1,3.5170963E-1,5.1618725E-1,-2.09319E-2,3.501687E-1,1.4478432E-1,1.916372E-1,4.449651E-1,2.761917E-1,7.1736157E-1,4.1722405E-1,3.0787393E-1,1.2169137E-1,4.8123142E-1,5.359312E-1,2.2019705E-1,1.4761479E-1,3.7458843E-1,3.5378644E-1,1.5536798E0,6.152594E-1,2.581823E-1,4.6085554E-1,3.63108E-1,2.0032024E-1,-0E0,1.7331569E-1,7.6524097E-1,-0E0,9.4156265E-1,2.7880034E-1,6.242998E-1,6.933148E-1,3.8010418E-1,7.569822E-2,1.1716691E0,1.468524E-1,-0E0,3.574E-1,2.7633768E-1,5.793673E-1,2.501379E-1,4.7836855E-1,1.9489872E-1,3.2735145E-1,5.2747753E-2,7.404292E-2,1.9793472E-1,7.6386845E-1,3.026561E-1,2.103163E0,5.002549E-1,-9.809647E-2,5.045745E-2,3.025251E-1,-0E0,8.312741E-2,5.7125205E-1,-0E0,1.7950083E-1,-1.5403034E-1,3.7868953E-1,5.944332E-1,-0E0,3.5951796E-1,-0E0,4.7040917E-2,3.6263344E-1,2.6925424E-1,5.584093E-1,9.256644E-1,1.7068021E-1,4.2715558E-1,8.218461E-2,3.1920573E-1,1.7892544E-1,1.1607912E0,5.2999467E-1,9.781906E-2,4.775491E-1,2.0929378E-1,4.741464E-2,3.5543004E-1,1.1411281E-2,5.3172696E-1,8.95472E-1,1.8123145E-1,7.176398E-1,4.6983105E-1,-0E0,4.5265442E-1,3.4371185E-1,7.310958E-2,4.1601086E-1,-0E0,1.9542961E-1,1.5542306E0,4.1818532E-1,2.752364E-1,4.3517673E-1,3.9743972E-1,8.7313056E-1,-0E0,8.6855507E-1,2.7241367E-1,4.4238445E-1,-0E0,1.8207863E-1,3.8365826E-1,3.0544645E-1,2.0343587E-1,3.657325E-1,3.9839232E-1,8.0575246E-1,2.7333063E-1,-0E0,4.4945258E-1,1.3810794E0,4.5043328E-1,-5.751328E-3,1.0462773E0,-0E0,-0E0,3.406996E-1,-6.304777E-2,1.7122461E-1,-0E0,-8.23338E-2,2.9489335E-1,2.1732634E-1,9.2419225E-1,-0E0,1.0028732E0,-0E0,4.3022275E-1,-0E0,1.4687179E-1,-0E0,3.0917E-1,5.560242E-1,-0E0,2.0157433E-1,4.587207E-1,5.749069E-1,-0E0,1.1774636E-1,3.678815E-1,3.078086E-1,5.790917E-1,3.4740195E-1,1.0619686E0,2.3802619E-1,-0E0,1.8979794E-1,1.6032964E0,2.8017884E-1,5.8672726E-1,4.1479746E-1,6.112359E-1,3.4243974E-1,3.130739E-1,3.9744073E-1,-1.2079489E-1,3.4425494E-1,7.4004304E-1,-4.2610717E-1,2.5133662E0,4.6790305E-1,2.7759802E-1,1.7132561E-1,4.2210512E-2,4.5295495E-1,1.1773884E0,-0E0,4.507252E-1,2.0944695E0,4.4547087E-1,2.3478734E-1,4.7943914E-1,3.041204E-1,3.788359E-1,7.976405E-1,4.7569785E-1,2.7364743E-1,5.6049746E-1,1.8044552E-1,5.548438E-1,2.7598065E-1,1.3354023E-1,7.642431E-1,-0E0,4.5398223E-1,2.1747859E0,5.824868E-2,-3.0746913E-2,-0E0,8.429718E-2,-2.09319E-2,1.760452E-1,3.0794436E-1,5.2986485E-1,2.009145E-1,6.8323964E-1,2.010193E0,4.5152518E-1,3.3750176E-1,2.5242833E-2,6.0728204E-1,2.1237674E-1,3.2191083E-1,5.823674E-1,-0E0,3.1812254E-1,3.798493E-1,3.2530788E-1,8.272235E-2,5.9113055E-1,-0E0,1.4664519E-1,1.2433692E0,3.0511948E-1,-0E0,7.5947547E-1,3.52974E-1,4.1660914E-1,9.60608E-1,3.4799358E-1,-0E0,2.0748137E-1,3.45433E-1,4.1232234E-1,9.8037645E-2,9.3313885E-1,-0E0,2.6684812E-1,3.0913207E-1,1.608053E-2,3.1816432E-1,5.320928E-1,2.5845224E-1,-0E0,9.726551E-4,7.964417E-1,1.8578292E-1,-0E0,5.1156414E-1,-0E0,3.5055578E-1,3.404324E-1,6.2227345E-1,2.6213524E-1,5.990145E-1,-2.697571E-1,2.0861168E-1,6.1966914E-1,-3.2894492E-2,-1.7456234E-1,2.9953292E-1,3.877796E-1,-6.1188763E-1,3.1050006E-1,4.9563327E-1,3.5620463E-1,2.4884197E-1,-0E0,2.0332542E-1,5.3062415E-1,3.6742133E-1,2.7626428E-1,6.4433724E-1,3.952029E-1,2.8109542E-1,5.364207E-1,6.914677E-1,3.43214E-1,1.642709E-1,3.7548384E-1,5.9741426E-1,3.3097762E-1,1.874914E-1,5.697826E-2,5.839969E-1,9.179603E-1,5.3233397E-1,2.596508E-1,-0E0,8.174817E-1,1.5179755E-1,3.6416718E-1,-0E0,3.8372457E-1,2.0959141E0,-0E0,1.4262255E-1,-4.034609E-3,2.7749622E-1,4.4423807E-1,2.544657E-1,6.997467E-1,2.4313928E-1,8.746317E-1,1.6874813E-1,2.7812222E-1,7.2674006E-1,1.4793682E0,4.4348443E-1,